1240 32
dan_Thursday -0.23376161 -0.27625152 -0.2560395 0.36187038 0.010530642 -0.35819742 0.3868543 0.08569905 0.07612644 0.21773273 -0.22048819 -0.069854274 0.43841258 -0.23357297 -0.46634224 -0.48669353 -0.34546518 0.35836887 0.30283546 0.13867992 0.15742944 0.20445193 0.17427358 -0.5771637 0.01493717 0.0058648405 -0.49319947 -0.29766798 0.4217405 0.004884442 0.33561298 0.08888819
dan_Tuesday -0.26450193 -0.29949704 -0.2879963 0.4165617 0.1022073 -0.3694533 0.36137122 0.06798885 0.10978506 0.14345358 -0.19833297 -0.030513603 0.49355054 -0.08553944 -0.48560068 -0.4093338 -0.4056797 0.4196362 0.38812333 0.23682612 0.27198204 0.1987341 0.048484627 -0.48008937 -0.083221406 0.13907894 -0.485852 -0.2607739 0.25863507 -0.083229154 0.270946 0.057877973
dan_Wednesday -0.19500963 -0.35904714 -0.2737741 0.45068163 0.066316076 -0.36132297 0.30590403 -0.019048318 0.060441054 0.16632469 -0.22040129 0.013436868 0.43915612 -0.06260689 -0.48736143 -0.5002794 -0.3520005 0.36019018 0.42480808 0.17755012 0.25391677 0.16399561 0.12898634 -0.5270627 -0.054544356 0.07209752 -0.45608407 -0.2113785 0.33638045 -0.10764984 0.2963285 0.086080894
dan_Friday -0.19283265 -0.32141286 -0.14416367 0.44268972 0.065904245 -0.2992239 0.31723958 0.18288855 0.0179776 0.2361788 -0.16659473 0.0914396 0.46196 -0.08880878 -0.41974953 -0.31654817 -0.33076274 0.4208323 0.45752367 0.2707865 0.22970338 0.15680122 0.16971678 -0.47702196 0.0201362 0.094995625 -0.48741075 -0.30425307 0.44370255 -0.08598782 0.16868362 -0.007889672
dan_Monday -0.14638118 -0.23293166 -0.37405506 0.41931328 0.10517492 -0.3647136 0.34815663 -0.11114168 0.14669214 0.15853992 -0.27224013 -0.023830911 0.5271817 -0.13518001 -0.6191654 -0.3996808 -0.38553476 0.31299984 0.50425875 0.25482163 0.24781011 0.33320037 0.046299372 -0.5091156 0.025700787 0.09943096 -0.41401076 -0.25091544 0.15233159 -0.09763555 0.27751985 0.08250193
dan_Saturday -0.061573345 -0.45073625 0.03350339 0.3114125 0.1333322 -0.4893398 0.3479328 0.2979842 -0.12728249 0.25434822 -0.27996972 -0.022898065 0.47597545 -0.08526148 -0.3898613 -0.24229372 -0.22948988 0.22069599 0.24295804 0.1629094 -0.053074222 0.36569968 0.35480356 -0.4981503 -0.14516461 -0.011384812 -0.58449346 -0.2527615 0.48876217 -0.06673845 -0.41207722 0.27504373
atribut_Accepts Credit Cards -0.37636882 -0.47441643 0.07372274 0.12562492 0.05776558 -0.28210783 0.55813 0.025667492 -0.10650737 -0.09727737 0.30724198 -0.1432406 0.0013194266 -0.33592895 0.076411255 -0.28878957 -0.07029462 -0.18468262 0.19816901 0.37608117 0.07117728 0.3537518 0.25904986 0.07631897 0.2693108 0.33931392 -0.4430337 -0.14119668 -0.1675773 -0.43213338 -0.29365638 -0.002618963
atribut_Price Range -0.42765993 -0.580692 0.15937462 0.06870837 0.053319797 -0.25200754 0.6042592 -0.09406625 -0.09047046 -0.084558964 0.28295404 -0.09138053 -0.052681245 -0.26920933 0.060036324 -0.2470482 -0.10392777 -0.17752221 0.19209711 0.3986395 0.08134462 0.37603158 0.29086635 0.07546928 0.22615807 0.34748393 -0.42459837 -0.10627311 -0.1884841 -0.41706303 -0.34578574 -0.034966122
atribut_garage -0.3692833 -0.57848364 0.14829233 0.044822466 0.07468967 -0.32024565 0.5872305 0.024925478 -0.0348765 -0.11720501 0.34216812 -0.11313407 0.039119087 -0.26396325 0.10025176 -0.33116043 -0.07014479 -0.17137016 0.21040651 0.48754117 0.10012249 0.33784664 0.3160945 0.05114713 0.20312628 0.31377193 -0.44417077 -0.06771848 -0.19036506 -0.32347214 -0.3406812 0.009068721
atribut_vrednost_Accepts Credit Cards_true -0.36916614 -0.47748768 0.09427681 0.06004963 0.12932985 -0.36601096 0.56789154 -0.09090638 -0.05804359 -0.15180403 0.3354933 -0.18383664 0.053373642 -0.29365155 0.0030495233 -0.24439514 -0.13383727 -0.18042117 0.24284364 0.32874486 0.11755958 0.3354837 0.3227103 0.106700316 0.28192896 0.3572561 -0.34790182 -0.12433913 -0.21389402 -0.46429697 -0.28888005 0.025110532
atribut_validated -0.40508664 -0.5583216 0.17097895 0.044579726 0.023478998 -0.28947914 0.57427764 0.040173005 -0.074352294 -0.14701454 0.32533756 -0.15869212 -0.048639305 -0.32915902 0.09304529 -0.3066956 -0.13804552 -0.16372576 0.19930969 0.42022103 0.06471452 0.32482734 0.35854137 0.051326457 0.20389089 0.3172387 -0.4143507 -0.10889624 -0.15234904 -0.37725767 -0.36555728 0.094366066
atribut_lot -0.35987404 -0.5678712 0.19005898 0.047895648 0.0225742 -0.28674853 0.6123524 0.007010616 -0.12159623 -0.076675795 0.3105583 -0.112153955 -0.0023506593 -0.30497026 0.095881745 -0.37629133 -0.13269043 -0.12951538 0.1974062 0.40239882 0.07771237 0.33687258 0.27861777 0.037863977 0.18495828 0.2961788 -0.4691602 -0.10746026 -0.22536334 -0.3442904 -0.3679748 0.049086943
atribut_street -0.34200084 -0.53666157 0.1331369 0.07130296 0.0487711 -0.2805542 0.5933391 0.023507731 -0.07745508 -0.10484139 0.33114547 -0.10971788 -0.068457924 -0.25656608 0.07505536 -0.3310014 -0.072353296 -0.17864324 0.19813411 0.47467828 0.08605272 0.3535259 0.34197688 0.06899162 0.18831375 0.30579045 -0.46019968 -0.08482275 -0.1359302 -0.35956866 -0.35828292 0.047671173
atribut_valet -0.36284325 -0.6154756 0.21268737 0.053268183 0.012210397 -0.33318427 0.5293946 -0.01484324 -0.09864004 -0.11113223 0.30247533 -0.10231995 -0.0286505 -0.36395016 0.10504287 -0.36065283 -0.113460764 -0.16564691 0.19948226 0.4066733 0.008488665 0.38880548 0.2686844 0.05660658 0.18598698 0.27506998 -0.48145986 -0.1409958 -0.22673775 -0.403448 -0.32523653 0.083525605
atribut_vrednost_validated_false -0.33062452 -0.57059616 0.10653006 0.0543323 0.03774121 -0.314561 0.5516672 0.018478094 -0.07530922 -0.11076866 0.3503653 -0.09462881 -0.035554763 -0.33875194 0.085110135 -0.35127792 -0.13214192 -0.20976852 0.20115246 0.45741162 0.02051598 0.36445832 0.28541192 0.038415045 0.23660421 0.3220464 -0.48439917 -0.06748446 -0.21733549 -0.37542596 -0.378907 0.084270574
atribut_vrednost_street_false -0.43448216 -0.5478989 0.09560706 0.015288047 0.09088925 -0.3696114 0.47839248 -0.07091948 -0.16084348 -0.09222656 0.33487588 -0.11338164 0.01588318 -0.22796692 0.14790462 -0.3368245 -0.12600487 -0.14034918 0.2828043 0.41724575 0.15611845 0.38598812 0.19339661 0.13648608 0.15483867 0.24995065 -0.4855028 -0.14860202 -0.45171374 -0.38168484 -0.29808196 0.10086413
atribut_vrednost_valet_false -0.38333878 -0.5106719 0.16735537 0.14916028 0.008471652 -0.47852814 0.67448217 0.08760718 -0.06382177 -0.21871464 0.45500243 -0.12607794 0.005540499 -0.20299993 0.13883993 -0.24119407 -0.2913879 -0.22131447 0.056754604 0.41085956 0.17290568 0.24092773 0.22152191 0.082718246 0.103408895 0.39545166 -0.5572343 -0.057457816 -0.21543722 -0.29573748 -0.44261032 -0.058596697
dan_Sunday 0.37686184 -0.44126156 0.20073968 -0.024502048 0.44213203 -0.6041319 0.46169183 -0.16944577 0.022197036 -0.13987215 -0.30686873 0.05232872 0.8984718 0.17628737 -0.4760277 -0.32649493 -0.0015335681 0.15127674 0.3670078 0.6330382 0.0077936817 0.440867 0.34804952 -0.16812648 0.36064836 0.07382812 -0.566173 0.30507782 0.4321398 0.18128595 -0.07958384 0.41226137
atribut_By Appointment Only -0.9949073 -0.02065984 0.7259509 0.38847157 0.0006449278 -0.0967112 0.9155078 -0.35524905 -0.19834137 0.62368506 -0.18988596 0.97520846 0.12405717 0.35863772 0.22961324 -0.08605741 -0.8271866 0.083953924 0.046590384 0.6220563 0.771947 -0.64811367 0.7065647 -0.23544234 0.32068375 0.12681548 -0.541795 -0.3654895 -0.17235994 -0.7582591 0.7064269 0.49147373
atribut_vrednost_garage_false -0.60747725 -0.5541272 0.45341673 0.245504 -0.15484075 -0.4026572 0.681198 0.17279203 0.057555348 -0.23065133 0.3929861 -0.08476402 -0.05775818 -0.2826641 -0.021743732 0.026414452 -0.24705562 -0.3068694 0.15326904 0.49687785 0.15724646 0.3445322 0.060481884 0.079020314 0.18809098 0.36186704 -0.6371351 -0.1216727 -0.18306853 -0.38601714 -0.47664663 -0.025349164
biznis_atribut_stars_4 -0.06990794 -0.23113531 0.11578061 0.40740183 -0.0028184883 -0.19948792 0.18890575 -0.54862636 -0.5813013 -0.13978775 -0.02686225 -0.13900813 0.05941515 -0.18512753 -0.20043233 -0.8235501 -0.14876273 -0.017797187 0.90776336 0.37697786 0.1515636 -0.17379303 0.39473385 0.2453209 0.21355535 0.20813654 -0.67001456 0.29490063 -0.8498996 -0.25501946 0.5564224 -0.044991367
atribut_Wheelchair Accessible -0.18961777 -0.80101675 0.23868175 -0.13939327 -0.060322978 -0.3613238 0.46578458 0.22763525 -0.10592865 -0.029401693 0.07755345 -0.07844311 0.22232567 -0.25296167 0.024362003 -0.45963097 -0.018230181 0.2177314 0.36419252 0.31784585 0.0652654 0.48372433 0.26976386 -0.015407498 0.29998377 0.36782175 -0.28209457 0.06735138 -0.022320908 -0.30758056 -0.34180966 0.09242459
atribut_vrednost_Wheelchair Accessible_true -0.16586804 -0.759406 0.2678104 -0.1883333 -0.10290772 -0.38981292 0.42611772 0.094063416 -0.05759243 -0.09808358 0.06659299 -0.14284083 0.1612152 -0.20318022 -0.0827766 -0.406718 -0.07117201 0.12962747 0.38590133 0.2806056 0.12900004 0.47098938 0.32378793 0.09711377 0.4278509 0.36864465 -0.32806203 0.10239849 -0.027529856 -0.35654038 -0.39355364 0.10992227
atribut_vrednost_Price Range_2 -0.7280376 -0.16377531 0.38860932 0.03815767 0.14757569 -0.5188483 0.3887603 0.066482715 -0.23234807 -0.25599855 0.25252274 -0.49952793 0.5478101 -0.39930165 0.079246216 -0.09783363 -0.55585605 -0.45609665 0.036895957 0.32488772 -0.0053133867 0.17920668 0.5186231 0.29982325 0.21676263 0.3773509 -0.54698706 -0.013238626 0.059180763 -0.33379975 -0.2689802 0.042100597
atribut_vrednost_lot_true -0.7489655 -0.7207705 0.4949901 -0.008365225 -0.24772975 -0.36792472 0.20778678 0.5868465 0.064978585 -0.221201 0.35902387 -0.27214304 0.36067915 -0.10548286 -0.3147503 0.046977144 -0.28554335 -0.12815554 0.30550334 0.36991283 0.46193615 0.38249373 -0.26352194 0.10264469 -0.040411435 0.51628363 -0.86073166 0.073682465 -0.48392013 -0.32258227 -0.3674856 0.12738271
biznis_atribut_stars_5 -1.1975747 -0.34387603 -0.029447675 0.7249816 0.11442899 0.14730671 0.80178905 0.045785084 0.38342664 0.14249815 -0.231919 0.005177437 -0.06303033 0.26883498 -0.04106754 0.20982707 -0.6836594 -0.46562612 -0.6902494 0.2078077 0.87075734 0.23245957 0.23402026 -0.8880174 0.032373168 0.01468024 -0.17038709 -0.75471395 0.4389709 -0.5887342 -0.11076338 -0.15024737
biznis_atribut_review_count_0.0 0.4718342 0.5629954 -0.108290404 1.0952467 -0.0014007187 -0.67986286 1.1299984 -1.2097235 0.17298862 0.35759193 0.2926428 0.07242758 -0.36840808 -0.26014298 0.31467634 0.34360588 -0.6294179 -0.9338624 -0.19480059 0.23270498 0.72442454 -0.28566492 0.5941514 -0.16641738 0.92490596 0.47670206 -0.38481838 -1.0111487 0.29010764 -1.576038 0.7058494 -0.3474381
atribut_Good for Kids -0.5008603 -0.40563282 -0.3903928 0.12527834 -0.16405047 0.033590704 0.22627173 0.15803796 -0.5307804 -0.06653685 0.07465299 -0.7146084 -0.06335588 0.21281634 0.067153566 -0.6540032 0.20399459 -0.04590481 -0.16934623 0.16957496 0.26725742 0.0061289044 0.8787091 -0.23649547 0.37268165 -0.045106918 -0.5168461 -0.027903916 -0.009307339 -0.19685836 -0.20594731 0.6147867
atribut_vrednost_By Appointment Only_false -0.82059455 0.0796264 0.62115246 -0.1656909 -0.4861878 -0.76115996 0.93788433 -0.5805046 -0.1984248 0.2428798 -0.15807047 1.2166941 -0.4585722 0.24094257 0.35442513 0.15266833 -0.60811377 0.08230479 -0.06089378 1.155302 0.80474585 -0.6989712 0.86588913 -0.39874193 -0.09934655 0.3831456 -0.7794211 0.2736907 0.048655342 -0.17449743 -0.0065383655 0.6455901
atribut_vrednost_By Appointment Only_true -0.698896 -0.46942663 0.47308332 1.1245782 0.58600795 0.6596108 0.7794749 0.43753114 -0.2922362 1.1850728 0.05905124 0.74110323 0.48780394 0.37144655 -0.29619852 -0.4389647 -0.9016366 -0.0770688 0.13260524 0.012243202 0.7382039 -0.28359666 0.63438153 -0.17777032 1.0082449 -0.10002877 -0.42896882 -1.0698829 -0.39718574 -1.269656 1.4481095 0.556967
atribut_vrednost_lot_false 0.1543074 -0.30365852 -0.21382128 0.002862283 0.39933 -0.19150938 0.99570704 -0.7043644 -0.2580517 -0.024923304 0.49558353 -0.0195868 -0.4536252 -0.5902444 0.55467504 -0.7556384 0.044721037 -0.17086823 -0.116697274 0.5600988 -0.3753227 0.31739512 1.098558 -0.31945252 0.4962131 -0.05887737 0.026397659 -0.27009428 0.220926 -0.44897804 -0.13230285 -0.07568942
biznis_EWMwV5V9BxNs_U6nNVMeqw 0.24661046 -0.26397997 0.36194444 -0.3136334 -0.23026974 0.20799504 0.47456107 0.40351564 -0.5124066 -0.59182996 0.35084677 -0.77067626 -0.7036301 -0.38712943 -0.26355323 0.51247746 -0.43618193 0.20060651 0.7878609 -0.34476832 0.57773525 0.097769246 0.6479831 -0.0661562 0.0539157 -0.9214946 -0.54147595 -0.06446081 -0.18678482 -0.3559475 0.28601784 -0.016611733
biznis_atribut_review_count_1.0 -0.8576006 -0.2922752 0.4119319 0.2149492 0.9689166 0.017743403 0.018951897 -0.51560557 0.48426437 0.3891567 0.75597376 0.7533063 -0.5876229 -0.65691715 -0.010266727 -0.624624 -0.6450511 0.71454626 -0.8683331 1.3049442 -0.09210381 0.22029065 0.3493288 -0.98186964 -0.54288656 -0.0037193997 -1.0363728 -0.12676336 -0.9418461 -0.78697896 0.612569 0.18789151
biznis_atribut_review_count_2.0 -0.3099162 -0.23790765 1.5340244 0.5791312 0.31955558 -0.32118055 1.3125278 1.0949534 -0.30656624 0.42138496 0.34260544 0.102023154 0.34506464 0.26155257 0.19170763 0.31546915 -1.060142 0.20950481 0.86657244 0.36591738 1.2428488 -0.9887416 0.68558514 -0.051949233 -0.21410507 0.90863305 0.1410148 0.2129591 -0.50698483 -0.2025124 0.007893472 -0.012712362
biznis_WNy1uzcmm_UHmTyR--o5IA 0.1570591 0.102822505 0.069338284 -0.576704 -0.27199104 -0.30984724 0.98527014 0.34521663 -0.44155282 -0.66958886 -0.5029321 -0.8640726 -0.067962505 0.06903934 0.24706833 0.47212943 -0.46609142 0.22090673 -0.21501434 -0.23597099 0.5905543 0.105997376 0.10607329 -0.33916688 0.46079898 -0.48782578 -0.26618645 0.2899871 0.03067813 -0.50528586 0.25975892 0.015206013
atribut_Wi-Fi -0.03114151 -0.83815885 -0.40042204 -0.15340714 -0.17743193 0.17500193 0.14456952 -0.106035866 -0.65526825 0.08303595 -0.0210056 -0.44815806 0.3379732 -0.035401557 0.15222208 0.2609559 -0.019802017 0.64867646 0.12870686 -0.00525279 0.1606012 0.39897913 0.5059885 -0.2002076 0.6584801 -0.10441298 -0.48429596 0.13675389 -0.009507224 0.16625354 -0.068585426 0.33519122
atribut_vrednost_Good for Kids_true -0.6747268 -0.24829525 -0.47917205 0.3597534 0.014867759 -0.35742968 0.35058004 0.10663995 -0.43156567 -0.11822089 -0.032447357 -0.51918 -0.1299259 0.21191417 0.23886606 -0.28198427 0.15151505 -0.39851612 -0.44212905 -0.11994035 0.42332 -0.23678929 1.0855868 -0.10155381 0.62796843 0.108384214 -1.1096832 0.40382186 -0.08253672 0.47805268 -0.1887003 0.21039143
atribut_Alcohol 0.10994988 -0.70579517 -0.5437799 0.0026158511 -0.042330403 0.12013569 0.33206323 -0.13662173 -0.6375958 0.098214336 0.2454493 -0.84404004 0.2002986 0.19635248 0.1543997 0.38101804 -0.0829148 0.5290943 0.021738913 0.12938528 0.07178132 0.57060164 0.38550675 -0.16331461 0.6476994 -0.14656277 -0.3702284 0.058808725 0.078086235 0.20030898 0.13818876 0.039102726
atribut_Outdoor Seating 0.108765766 -0.8165533 -0.48432416 -0.14157824 0.06908324 0.15581028 0.32910773 -0.17108072 -0.561887 0.15245366 0.1879246 -0.6690546 0.24818192 0.19718292 0.16605556 0.356007 -0.036880568 0.50893503 0.15533796 0.07946757 0.10157534 0.52126354 0.3829062 -0.22002332 0.60005826 -0.14364077 -0.382797 0.17368355 0.10329017 0.1998351 0.12569651 -0.0027590275
atribut_Attire 0.09669193 -0.7083558 -0.5760733 -0.03484444 0.046797015 0.14807646 0.32155392 -0.06345213 -0.6738717 0.09149653 0.08737056 -0.72559994 0.23092124 0.20659812 0.1931408 0.35975218 -0.06808049 0.47508037 0.1571509 0.10660616 0.02180475 0.4946077 0.41731533 -0.20444143 0.653009 -0.09765398 -0.44865635 0.13429952 0.079864286 0.17332335 0.13152492 -0.0204371
atribut_classy 0.113130026 -0.71040136 -0.5133311 -0.022212507 0.032922063 0.107255034 0.21456875 -0.069265194 -0.62486386 0.18099137 0.11888223 -0.84179634 0.16670108 0.22720467 0.10161184 0.44134885 -0.079038836 0.57033616 0.0038399438 0.102288805 0.07646155 0.49881953 0.4526307 -0.21790162 0.6918132 -0.22717778 -0.36902943 0.1628444 0.011868433 0.18804382 0.12839115 0.062458277
atribut_breakfast 0.19945756 -0.71783745 -0.6053555 0.013193933 0.004877578 0.19089161 0.25185907 -0.11925225 -0.599875 0.11413202 0.024149308 -0.7474592 0.2150898 0.17196529 0.18613242 0.42792073 -0.06486782 0.6132186 0.0028385776 0.12749816 0.08364438 0.44435444 0.45877817 -0.14684789 0.6346337 -0.14636914 -0.50503457 0.18576245 0.11407949 0.15280738 0.12856717 0.1475094
atribut_Noise Level 0.21620618 -0.58200896 -0.6872604 -0.08004396 -0.028471844 0.130754 0.14916706 -0.093607314 -0.6729422 0.107030235 0.3496837 -0.88608056 0.20566162 0.33341596 0.12596709 0.5767451 -0.16259801 0.3292633 0.069620505 0.21503876 0.12447234 0.53555405 0.3385791 -0.2874565 0.7213291 -0.16261263 -0.31752908 0.015813667 0.06065368 0.12363642 0.13841224 0.13187179
biznis_atribut_stars_3 -0.12436778 0.4149252 -0.0636659 -0.22676055 0.9973626 -0.66862595 0.77442354 0.019284548 -0.42756212 -0.08362209 2.2192442 0.9067212 0.29859364 -1.3154618 0.46151358 0.7372665 -0.087848805 0.62480503 0.13406217 0.24713726 0.8683125 0.1689076 -0.70141816 0.09837104 0.58337796 0.7321868 -0.3676818 -0.5032821 0.59476334 -0.7511257 0.48211017 0.9736346
atribut_divey 0.10917304 -0.63554704 -0.529044 0.03260273 0.008420262 0.12613675 0.2698301 -0.017930906 -0.57583696 0.1628764 0.28468058 -0.86879444 0.14025879 0.24757172 0.09196265 0.38776132 -0.076229505 0.6421595 0.03417418 0.14000775 0.028125472 0.5504056 0.38573712 -0.1868031 0.6462317 -0.16088909 -0.35128215 0.23985301 0.11795799 0.17354468 0.22637191 0.08564949
atribut_Good For Groups 0.11099118 -0.7213316 -0.52949005 0.0014039116 -0.026266096 0.17558728 0.32683575 -0.034673925 -0.6923552 0.18108824 0.17262173 -0.8979157 0.15482281 0.1738126 0.13493054 0.27182955 -0.0056972695 0.5338951 -0.023196872 0.09570124 0.10757184 0.5088474 0.42228922 -0.099584684 0.5835498 -0.12277989 -0.42368367 0.24208802 0.07810357 0.2128621 0.14259242 0.08996281
atribut_touristy 0.11039866 -0.6719237 -0.6092584 0.00673615 -0.09484114 0.097930364 0.16526085 -0.1002013 -0.71999604 0.1791338 0.24892694 -0.7941952 0.21426311 0.31048656 0.24365373 0.41187277 0.0111143105 0.40515164 0.039496347 0.08318075 0.068275966 0.5131807 0.42978638 -0.28584293 0.6904131 -0.16205885 -0.42480642 0.0029324498 0.0966197 0.17477751 0.19827586 0.04614796
atribut_intimate 0.06984848 -0.62315214 -0.57154727 -0.010233777 0.04882979 0.1905616 0.25133535 0.15179996 -0.63786405 0.13920496 0.19284663 -0.8874029 0.22101851 0.20137873 0.14786237 0.40530586 -0.07421359 0.6828365 -0.0078871725 0.13087484 0.13856907 0.5368163 0.38027444 -0.1599402 0.58528715 -0.13229096 -0.3636759 0.14575677 0.0011069394 0.14026217 0.14251609 0.14206557
atribut_dessert 0.17767392 -0.78173417 -0.50748 0.02853707 -0.04307058 0.27591914 0.26300597 -0.03720251 -0.69613427 0.12771645 0.0788219 -0.764091 0.26111317 0.086207345 0.24480751 0.38580936 -0.059558716 0.54212064 0.03705172 -0.025985638 0.07151912 0.4742296 0.47458136 -0.19147238 0.69309634 -0.07640629 -0.42495978 0.23012841 0.10516927 0.23440114 0.1513814 0.20089144
atribut_lunch 0.12214975 -0.6300161 -0.51206154 0.003888582 -0.009037512 0.10005066 0.29331923 -0.16129395 -0.71400493 0.10558095 0.1218139 -0.7466699 0.1968887 0.21681961 0.15283164 0.40674725 -0.12503783 0.5752181 -0.02198662 0.09948022 0.08366056 0.48717606 0.42080915 -0.12969086 0.69457114 -0.1513877 -0.41938645 0.20170753 0.09648696 0.21613218 0.074076794 0.14183117
atribut_casual 0.052314874 -0.73656607 -0.5388316 -0.0018473477 -0.017335614 0.098393954 0.2813575 -0.11598706 -0.62069213 0.20093583 0.097587444 -0.83108896 0.22530647 0.20178358 0.07149658 0.33394188 -0.10032202 0.5079202 0.072407626 0.07641291 0.066148125 0.47799116 0.34996477 -0.23846576 0.63978666 -0.18976492 -0.3974306 0.11448629 0.06955448 0.16395354 0.1096556 0.04409241
biznis_atribut_review_count_3.0 -0.2611197 -0.7820196 0.2682292 0.18548192 -0.30200082 -0.5502222 0.40245175 -0.5136289 -0.36306232 -0.32048646 -0.1350451 0.81110454 0.766749 0.44606844 -0.77172667 -0.0140814 0.49617618 -0.8681548 0.6577043 -0.35416907 0.7076037 1.117581 0.17736101 0.051649086 0.5236101 0.108898334 -0.6363812 0.31002903 -0.02176864 -0.43948984 -0.1898645 0.10137837
atribut_upscale 0.0634678 -0.73198324 -0.5438888 -0.022837829 -0.010601629 0.1629566 0.27517766 -0.030758904 -0.6846304 0.2612523 0.056260336 -0.8166307 0.14768972 0.16653514 0.13948599 0.44127697 0.003084097 0.50304884 0.015678989 0.11976728 0.052415308 0.5577571 0.3976746 -0.21802886 0.5866862 -0.14801438 -0.43631458 0.17746346 0.08807176 0.22096954 0.08667613 0.047131266
atribut_Waiter Service 0.22069463 -0.634295 -0.5588168 -0.020327345 -0.06828547 0.2147058 0.26281032 -0.16435783 -0.63089603 0.06696423 0.1321672 -0.74407303 0.24002159 0.18650492 0.16366039 0.38028324 -0.08166294 0.54203296 -0.05945671 0.100542195 0.13609453 0.514813 0.45604992 -0.10215184 0.69657475 -0.098901905 -0.4526577 0.18952724 0.07545877 0.18454948 0.15665968 0.18261196
atribut_Delivery 0.060215753 -0.71298677 -0.5688155 -0.015932702 -0.03974601 0.07091272 0.23134871 -0.1295632 -0.69618577 0.13482587 0.0744935 -0.7611022 0.23210469 0.21971226 0.142955 0.3978721 -0.12507167 0.6167212 0.013776662 0.029763464 0.13939805 0.46012086 0.43598968 -0.13149703 0.60633355 -0.13680989 -0.39033094 0.20270091 0.0839885 0.21500553 0.16553544 0.1712719
atribut_hipster -0.0077984836 -0.7414107 -0.56615734 -0.08752917 -0.033705723 0.1251082 0.27134854 -0.11961208 -0.5863202 0.14894974 0.28718057 -0.8946606 0.16049735 0.16345982 0.12704769 0.429186 -0.14416865 0.53553563 0.11949286 0.11444002 0.0635743 0.48001125 0.3851297 -0.18781418 0.59623766 -0.081729144 -0.36679223 0.23009153 0.04455415 0.23638788 0.1871228 0.036984865
atribut_vrednost_touristy_false 0.1237843 -0.6933132 -0.55624217 -0.035741027 -0.03128963 0.11529625 0.29529104 -0.03575347 -0.64343333 0.17216901 0.180086 -0.80485046 0.15048257 0.2122259 0.12700988 0.48644012 -0.108966775 0.529879 0.043992855 0.1328526 0.10577404 0.5102037 0.38528034 -0.16397552 0.6527874 -0.14272591 -0.35946518 0.11274965 0.032450214 0.19939439 0.14303386 0.032964315
atribut_dinner 0.107490756 -0.66341984 -0.5178219 -0.0028750717 0.030999085 0.19947088 0.2952853 -0.19501534 -0.694446 0.16505174 0.14033696 -0.7263591 0.2375996 0.11482713 0.21800521 0.3792366 -0.068198286 0.6227431 0.0349235 0.08644929 0.10191005 0.47665742 0.43725878 -0.17114793 0.6896263 -0.104718894 -0.38666713 0.17709337 0.009157202 0.17858727 0.093472965 0.052668624
atribut_Take-out 0.11565078 -0.7083334 -0.5687219 0.009239532 0.052351017 0.18821277 0.30143544 -0.06357093 -0.69668245 0.12843423 0.06306833 -0.7844363 0.23954588 0.16537556 0.25439882 0.40210915 -0.07553941 0.61625457 0.04477855 0.105140485 0.13530096 0.45533744 0.3884218 -0.19359554 0.6503169 -0.07079978 -0.40685347 0.1491595 0.04226643 0.21015435 0.0778511 0.099609375
atribut_trendy 0.046591494 -0.6845853 -0.56581914 -0.044497006 0.019341834 0.10177224 0.27424535 -0.123594195 -0.683725 0.18776499 0.1877274 -0.8345855 0.21289852 0.24100453 0.11961979 0.41978323 -0.053912323 0.55119026 0.058233 0.084290415 0.0702087 0.5268197 0.39440045 -0.23652914 0.6765775 -0.22617212 -0.36233965 0.14755535 0.09076008 0.17875628 0.1602373 0.06414532
atribut_romantic 0.10767482 -0.6063052 -0.5676117 -0.0069445935 0.04429895 0.07759552 0.20942172 -0.018539412 -0.5736742 0.21030124 0.17900738 -0.91603 0.22973037 0.16711882 0.097587205 0.46818247 -0.10763396 0.51395357 0.19230361 0.05925655 -0.004944478 0.5077336 0.3986798 -0.21405032 0.6012926 -0.13742818 -0.4059635 0.13931428 -0.03487569 0.14516388 0.18648241 0.06410633
atribut_latenight 0.19663903 -0.7160722 -0.5895292 0.06976627 0.012125661 0.21220854 0.25757265 -0.161939 -0.6713576 0.009630566 0.0984239 -0.70243967 0.22237697 0.16052319 0.18140563 0.4331278 -0.038359065 0.6316931 0.023538923 0.16347954 0.121838704 0.48187044 0.442166 -0.11786034 0.66928333 -0.11868632 -0.4483919 0.15550093 0.008972687 0.18906544 0.15425768 0.06120987
biznis_AkOruz5CrCxUmXe1p_WoRg 0.45568475 -0.22679329 -0.110741064 0.13170195 -0.12196127 -0.83839494 0.29362744 -0.10062851 -0.10780431 -0.41309804 -0.47412428 -0.78487706 -0.032370202 0.100279704 1.0356512 -0.1778523 -0.24892342 0.121100046 -0.558297 -0.12106624 0.30282936 0.6364003 -0.1098171 -0.17444226 0.37952635 -0.6774474 -0.8381327 0.09627444 -0.012477723 -0.58524024 0.2843704 -0.254997
atribut_Takes Reservations 0.13299482 -0.7227404 -0.562289 0.022374442 -0.036926243 0.15025643 0.2895515 -0.17388852 -0.6840587 0.12621884 0.054540455 -0.7505161 0.2895607 0.17353375 0.22543326 0.3264691 -0.059706073 0.57038677 0.026173303 0.06897713 0.14770369 0.46091327 0.43254253 -0.2045433 0.6268411 -0.17357929 -0.43482667 0.10711696 0.07541322 0.21282515 0.0722083 0.14530596
atribut_brunch 0.15104173 -0.6990281 -0.50593317 0.011761441 -0.0060542324 0.1569122 0.27090594 -0.16207218 -0.75301903 0.0796139 0.038522057 -0.6853871 0.20238064 0.24113828 0.16614729 0.36235318 -0.06254494 0.5840988 0.10621618 0.12591025 0.057726942 0.47356805 0.4673816 -0.26143944 0.6799235 -0.16063365 -0.4287222 0.1504593 -0.019800674 0.2533839 0.05848429 0.08073717
atribut_vrednost_divey_false 0.10504003 -0.7154038 -0.6064926 -0.05638811 -0.05148038 0.120611556 0.26715082 -0.09000827 -0.6740394 0.1444576 0.08693558 -0.86540884 0.20825493 0.17548126 0.08532289 0.35011762 -0.13931046 0.47733375 0.039526857 0.080922894 0.121712655 0.47202522 0.37286034 -0.20798832 0.59794444 -0.15852797 -0.46228322 0.08906068 0.07901887 0.22885758 0.119886674 0.12756526
atribut_vrednost_intimate_false 0.07834312 -0.715685 -0.58131874 -0.03071727 -0.059088156 0.09445628 0.2707889 -0.07899312 -0.5939444 0.2059361 0.11237117 -0.80064195 0.18968578 0.24699236 0.15637152 0.3829235 -0.107157566 0.43915576 0.07584642 0.057841744 0.022806259 0.48908117 0.4087535 -0.23013057 0.5796909 -0.22392961 -0.4646606 0.19952756 0.114801496 0.10487315 0.12998179 0.0060319947
atribut_Caters 0.0087032365 -0.68273276 -0.565654 -0.01016206 -0.038357988 0.14427489 0.17886184 -0.11576498 -0.62330645 0.10401435 0.12823124 -0.8718795 0.188571 0.14388044 0.19665317 0.39576632 -0.13241428 0.5117204 0.04183993 0.06042621 0.07917605 0.45264286 0.40320298 -0.17698686 0.6370783 -0.1975901 -0.47046158 0.13042882 0.033250395 0.13805489 0.14458488 0.17638142
biznis_lliksv-tglfUz1T3B3vgvA 0.6438363 0.042212747 -0.09276599 0.057249922 -0.013649258 -0.35384804 0.23072484 0.13753428 -0.56971884 0.107444406 -0.43971875 -1.0479932 0.5323171 -0.1978254 0.86176515 -0.06955667 -0.3884917 0.27603823 -0.09579772 -0.3444258 0.46754354 0.519942 -0.5013441 -0.080929875 0.110317476 -0.27087465 -0.8502695 0.16635536 -0.12891194 -0.772421 -0.0015899572 0.01626648
atribut_Has TV 0.07533816 -0.74746275 -0.56081456 -0.076039694 0.035445128 0.0600278 0.25726044 -0.0751211 -0.66097635 0.18123087 0.18373862 -0.85235673 0.21378322 0.20045394 0.14056559 0.48429283 -0.14401406 0.54153705 0.12584217 0.08046187 0.07499906 0.5011177 0.30590498 -0.15503739 0.5929368 -0.16295539 -0.42479914 0.14448361 0.0465393 0.19527876 0.11438413 0.076287754
atribut_vrednost_dessert_false 0.09583679 -0.7003461 -0.57631546 -0.07476823 -0.0055809654 0.13536291 0.23827392 -0.19311765 -0.7180753 0.085690774 0.13833196 -0.75242484 0.15759154 0.12670374 0.12885621 0.4205811 -0.08702673 0.63679695 -0.014676751 0.12487214 0.006663973 0.5190731 0.4332865 -0.19790848 0.6749572 -0.12609813 -0.43447292 0.17616567 0.06836484 0.12071901 0.08245275 0.019981267
atribut_vrednost_hipster_false 0.16288866 -0.66685015 -0.54529905 -0.13748847 0.0073267436 0.097663656 0.22915165 -0.07202031 -0.70528024 0.20471504 0.14291444 -0.796728 0.19272007 0.19597064 0.12895165 0.36770806 -0.16434366 0.6025111 0.057719182 0.06260462 0.07786579 0.49372178 0.32862177 -0.17752987 0.6520684 -0.2100475 -0.43920094 0.094194144 0.011405407 0.13445774 0.21096078 0.11888401
atribut_vrednost_romantic_false 0.07508234 -0.76191926 -0.5640802 0.0050840513 -0.08123485 0.024671625 0.24954094 -0.20251888 -0.6430092 0.1496276 0.14866127 -0.7292323 0.15608558 0.20240837 0.14339359 0.5189834 -0.13176428 0.561504 -0.028387383 0.05658335 0.0527636 0.48833054 0.32906798 -0.22038133 0.6483747 -0.1825879 -0.42958027 0.11137746 0.12221812 0.16842517 0.090727285 0.04334714
atribut_vrednost_Delivery_false 0.17213227 -0.6074982 -0.55251956 0.07008466 -0.017802116 0.19364013 0.24804161 -0.14510004 -0.6896128 0.10823226 0.12523639 -0.71470094 0.21067901 0.1265582 0.20230313 0.379182 -0.09694205 0.71427053 0.0337933 0.15050828 0.028379245 0.48782933 0.38005945 -0.17203644 0.7006143 -0.13784476 -0.44863957 0.11040812 -0.031496 0.14439633 0.17848854 0.049141742
atribut_vrednost_Good For Groups_true 0.1287651 -0.7706299 -0.50748444 -0.03253805 -0.048917092 0.122613385 0.2587067 -0.2237053 -0.73162013 0.11903401 0.15495926 -0.7767243 0.28052813 0.13817781 0.13198006 0.4111656 -0.086367615 0.41036862 0.13583335 0.07513932 0.012375816 0.49849644 0.45942035 -0.2020684 0.5935155 -0.15872413 -0.3458667 0.19074991 0.026832547 0.25275925 0.18592505 0.13447408
atribut_vrednost_upscale_false 0.08308148 -0.7146593 -0.5795623 0.015971508 -0.009007446 0.11875471 0.20732911 -0.03376735 -0.6575372 0.1614291 0.19363989 -0.82825184 0.2354968 0.22192433 0.12470002 0.41691902 -0.12032313 0.56668234 0.08700328 0.042221114 0.09516412 0.38286948 0.3078921 -0.17604105 0.580139 -0.09415499 -0.552498 0.12584326 0.021580366 0.15953523 0.1744926 -0.01880181
biznis_MuIXnv7Oq7X3-4aEsp9dDA 0.09657828 -0.21150719 -0.015269961 0.09674461 -0.563639 -0.2582041 0.22977708 0.4296205 -0.7394759 -0.15969785 0.18249454 -0.42179847 0.1319279 -0.37908772 0.013880657 0.75665337 -0.13052455 0.31232345 0.45260435 -0.18198685 0.7511185 0.27855086 0.23471028 -0.5317664 0.19015343 -0.4242906 0.32458225 0.434001 1.0422665 -0.42819163 -0.20656648 0.009532095
atribut_vrednost_breakfast_false 0.12965272 -0.7218713 -0.41945392 -0.03320574 0.004722389 0.01522125 0.23421426 -0.06975572 -0.7836494 0.026152173 0.010746305 -0.8984585 0.17511654 0.112026036 0.07613399 0.3369933 -0.026482088 0.54391193 0.118371435 0.15469961 -0.0037857352 0.48417315 0.36845532 -0.13407259 0.7385911 -0.10266977 -0.33748284 0.12995726 0.13837062 0.12361086 0.2124564 0.16662414
atribut_vrednost_brunch_false 0.13820659 -0.7130566 -0.5086462 -0.0019909914 -0.02188173 0.11439263 0.24053821 -0.14355268 -0.6780304 0.04206646 0.062312968 -0.8895215 0.2776911 0.045155466 0.06168866 0.5127461 -0.0834718 0.4405175 0.036400087 0.20773503 0.1468317 0.58872455 0.33108184 0.022034258 0.6415113 -0.16807455 -0.39713523 0.058946528 -0.032034118 0.21664959 0.1744092 0.109534085
biznis_h6jfMpTZpNduLG0wE2tbaw 0.13392234 0.241271 0.46999466 0.014909935 -0.44627902 -0.21318117 0.43780002 -0.066506125 -0.3142575 -0.34915113 -0.3107964 -1.0699583 0.2573475 0.63769025 0.6739653 -0.07860669 -0.25692052 0.48581854 -0.18407677 -0.36419243 0.7395364 0.85478455 0.07843369 -0.11748626 0.18390846 -0.067659035 -0.64014053 0.28269723 -0.4561471 -0.4579739 0.04065638 -0.23931757
biznis_ngNvH4sxnH9aMukTZ67R_Q 0.68532157 -0.04564702 0.28723645 0.26414487 0.22289152 -0.24376987 0.4492403 -0.05327572 -0.4555352 -0.4304808 -0.5856603 -0.8029714 0.15042822 0.31137198 0.9363656 -0.1680409 -0.37185833 0.2345093 -0.19762878 -0.051904418 0.19562662 0.11670763 -0.022191618 -0.64208484 0.47330415 -0.16661127 -0.6962412 0.22182272 -0.21052706 -0.38315177 0.07619667 -0.290146
biznis_SsTxjxo8qvqBMvan1rzNzg 0.33442375 0.22204834 -0.19643438 -0.26980948 0.07846146 0.4228197 0.96561396 0.22818118 -0.66505545 -0.464123 -0.07492964 -0.26177257 -0.13512935 -0.51050764 0.3581919 0.43408245 -0.02647087 0.4418156 0.09885608 0.2696706 0.67714834 -0.13629587 0.56080717 -0.038197283 -0.020405577 -0.23370887 -0.7259801 0.5107068 0.20389752 0.015620162 0.30136234 -0.29771647
atribut_vrednost_latenight_false -0.0239077 -0.6966654 -0.51852643 0.098266564 0.0552755 0.2911135 0.2779372 -0.12990373 -0.6349733 0.1493343 0.08354387 -0.85299087 0.12763993 0.067592986 0.2931616 0.2973925 -0.114180684 0.4804327 -0.03826489 0.04086012 0.05862488 0.43666646 0.37920627 -0.15882075 0.788941 -0.25415304 -0.41307467 0.25675237 0.10018504 0.13054068 0.13709022 0.1658907
biznis_PmPOuRvuN3CoNOi1nBj_TQ 0.13116162 -0.33650792 0.070437886 -0.0018525278 -0.272893 -0.44182342 0.1958438 0.18604493 -0.18537202 -0.73529935 -0.5500724 -0.7604974 0.16646908 0.24655584 1.0873352 0.099730976 -0.5773002 0.09583998 0.021947723 -0.04789063 0.45155352 0.2524081 -0.11610976 -0.35044146 0.29305667 -0.23812893 -0.51609486 0.41277987 -0.53352726 -0.411906 0.27723202 -0.008269106
biznis_M2SjLXsuAy5RNKwxaA5E1g 0.40492117 0.35273576 -0.02077825 -0.28588542 0.3540777 0.047724668 0.5239417 -0.27937803 -1.0461613 -0.48902375 -0.037164263 -0.49479294 -0.21504234 -0.19492292 -0.14166681 0.78765666 -0.16702999 0.30936173 0.26622865 -0.16780706 0.5958837 -0.20374781 0.832897 -0.32464257 0.08968531 0.03862499 -0.22443208 0.26636952 0.28235692 -0.39025286 -0.113805 0.04236474
biznis_WhBxWYRj6rycigYqdXY9cA 0.1832127 -0.43987432 0.05349363 -0.13156474 -0.49701652 -0.48677903 0.43723503 -0.38700816 -0.16976582 -0.33652875 0.07049855 -0.89163554 -0.32083693 -0.23606752 0.41174278 0.48918137 -0.10728222 0.15674025 0.14770465 0.16041508 0.44930428 -0.24264576 0.791986 -0.103538364 -0.18404049 -0.47559822 -0.3943075 0.48329827 0.48003566 -0.15840536 0.44752428 -0.29788423
biznis_tqu42L0qXzkvYKSruOz0IA 0.47987 -0.79866284 -0.15773784 -0.96659505 0.12973526 0.2911906 0.46152684 -0.25681457 -0.27148125 -0.23487142 -0.07795397 -0.22824442 -0.2633701 0.005143121 0.28277463 0.36725733 0.32876626 0.25047338 0.21930367 0.09227556 1.1817021 -0.10195981 0.25327137 -0.32393086 -0.3092146 0.06254077 -0.64520246 0.29168168 0.071431875 -0.25163123 0.554052 0.05862164
atribut_vrednost_trendy_false 0.04467583 -0.848786 -0.6685419 -0.16419344 0.121081896 -0.0413502 0.23130766 -0.12910555 -0.41375375 0.23940906 0.014987239 -0.8522789 0.20352778 0.15440142 0.28614947 0.5135198 -0.09805455 0.36390388 0.011605916 0.133587 0.11181478 0.59805113 0.41619566 -0.18355791 0.66864616 0.01764965 -0.4789113 0.24649198 0.016768474 0.32595772 0.06168124 -0.013373229
biznis_tn5SXZvWiT-uVsjXLGSrww 0.6334016 -0.075029135 -0.38264498 -0.047937866 0.47237614 -0.09070833 0.32026562 0.27050143 -0.43812895 0.5506119 -0.47879133 -0.5236425 -0.34860876 -0.2742137 0.49738362 -0.30884644 0.47545576 0.0419389 -0.28780067 0.086641766 0.64536506 0.79406905 -0.14514148 -0.3497703 -0.08584548 -0.31811756 -1.1748427 0.19341563 0.47132823 -0.07607072 0.26517743 -0.3953291
biznis_naLrErBuJr9IWd6_rv6-XQ 0.18349756 -0.56115997 -0.10661486 -0.19014807 0.08389913 -0.2390478 0.36327276 0.06636192 -0.47878343 0.2423384 -0.60211384 -0.6935336 -0.24988042 -1.106954 0.23290518 0.8299722 0.37802148 -0.019777104 0.5773295 -0.041176833 0.5558404 0.39264727 0.17838393 -0.2156983 0.3900309 -0.22927119 0.16352886 0.12367539 0.433115 -0.51021117 0.06636874 -0.0008449313
atribut_vrednost_Waiter Service_true 0.09911038 -0.64158106 -0.5192018 -0.056884676 -0.086728916 0.2628508 0.14616689 -0.26715872 -0.780312 -0.020662006 -0.02406067 -0.7156635 0.17441945 0.07434195 0.25448635 0.3361058 -0.23763895 0.6895359 0.11097233 0.2526509 -0.04202641 0.4603241 0.5592709 -0.13633028 0.6401448 -0.053708933 -0.32275954 0.14862971 0.10307984 0.0029559107 0.1427012 0.11937
biznis_5GKbGn9-fAgQ0njSh3OJ8A 0.34053257 0.0070668687 -0.20834485 -0.4612701 -0.030824637 0.095542006 0.24609153 -0.1815604 -1.0978233 -0.23472442 0.08044176 -0.28716663 -0.3626119 -0.2771454 -0.38966763 0.6546777 0.41447023 -0.36359712 0.9587114 0.26898852 0.4445806 0.43926278 0.5575544 -0.73009175 0.21054436 -0.26728532 -0.22620848 0.17457002 -0.27097774 -0.20602395 -0.1340589 -0.07209018
atribut_vrednost_classy_false -0.041795034 -0.65029484 -0.4961698 0.008759265 -0.020626305 0.023132918 0.34345663 -0.003968957 -0.6674721 0.18216467 0.3536127 -0.8519199 0.22822978 0.21446097 0.049724728 0.5888162 -0.05684686 0.6058599 -0.013095765 0.00604922 0.08996273 0.39825284 0.20450069 -0.25566947 0.646295 -0.09529665 -0.49934897 0.10006007 0.060317636 0.26646063 0.11978469 0.017952124
atribut_vrednost_Attire_casual 0.1224701 -0.78814155 -0.44615778 0.027123913 -0.011759915 0.016495567 0.24878718 -0.034569114 -0.8309308 -0.15212537 0.44381997 -0.61165667 0.37120247 0.37792853 0.23220913 0.4250264 -0.26774886 0.69476855 0.087681875 -0.01937383 0.20207092 0.22705847 0.30386937 -0.086781755 0.6403396 -0.007100588 -0.5881782 0.28374487 0.12866075 0.2624582 0.024870608 -0.010381525
biznis_atribut_review_count_4.0 0.17655492 -0.70635056 -0.43649408 -0.22967958 0.08677416 0.03902672 0.29989827 0.083920516 -0.52981454 0.2379342 0.22677672 -0.79271394 0.12587026 -0.098134585 0.14008386 -0.016881222 -0.253519 0.630439 0.16133961 0.27411443 -0.11463333 0.46093288 0.40372276 -0.33316064 0.42733154 -0.14089397 -0.335585 0.10539375 0.1755466 0.2910268 0.13426715 0.17252849
biznis_2ceeU8e3nZjaPfGmLwh4kg 0.16342446 -0.29498464 0.11032085 -0.17076586 -0.47312012 -0.036960214 0.23759003 0.098494194 -0.23639068 -0.46089873 0.3188681 -0.8781909 -0.13612743 -0.3264738 0.1967332 0.46178225 0.19591549 0.2939116 0.18503585 0.43423697 0.77055675 -0.31791526 0.6939732 -0.103665344 -0.12620676 -0.3947721 -0.42035574 0.34381536 0.25024533 -0.18787506 0.47312626 -0.21297677
biznis_JokKtdXU7zXHcr20Lrk29A 0.36029005 -0.4448534 0.14363149 -0.12829167 -0.7699935 -0.18557267 0.39182106 0.035803493 -0.374633 -0.5155532 0.1048603 -0.531768 -0.5501563 -0.12851661 0.3511685 0.4343884 -0.22560778 0.37356362 0.17402063 0.19466354 0.54786575 0.09107247 0.45873994 -0.27937683 -0.11208292 -0.64538985 -0.40729272 0.08395071 0.68722224 -0.09220785 0.27760765 -0.051260345
biznis_4UVhuOLaMm2-34SrW8y-ag 0.59375256 -0.09118727 0.230168 -0.057982933 -0.39833325 -0.36942062 0.13964304 -0.61999726 -0.05218997 -0.190638 -0.17876002 -0.85756046 0.036437266 -0.4492803 0.43787405 0.59137255 -0.0580998 0.39679945 0.2632177 -0.10134851 0.07741618 0.7484897 0.5313021 -0.34987813 -0.5498603 0.58252 -0.70892036 0.29834032 -0.34199232 0.051561102 0.23037894 -0.1676718
biznis_5FLRsYrT6w2VSDvQDhphXg 0.6020392 -0.392456 -0.14069192 -0.012581295 0.029893454 -0.021067789 0.29175994 0.19441018 -0.37460533 -0.19573243 -0.49302834 -0.6917798 -0.14212893 -0.50921583 0.49185315 0.79310524 0.3651579 0.16460772 0.57334864 0.3681653 0.14007361 -0.045022752 0.29868448 -0.45663884 0.33810997 -0.0673361 -0.2230595 0.191556 0.42329434 -1.1057396 -0.18088958 0.19174215
biznis_Gn7bMxhZgY0bivsthvJWJQ 0.47764617 0.17968339 -0.026043566 0.23883972 1.1809762 -0.08721584 0.046992727 -0.53962576 -0.49981382 0.09425582 0.14822045 -0.47893012 0.40846604 -0.28697935 0.6005236 0.23743372 -0.2301414 0.71995264 -0.5367232 -0.1677621 0.4091558 0.28913933 0.2636867 -0.33811536 -0.2538431 -0.0716505 -0.5986002 0.20902142 0.41186064 -0.42840785 -0.07830313 -0.1596422
biznis_J4qLz0nGzCTMf6-kf_SiQg 0.6741133 0.17256287 -0.428825 -0.056455646 0.5979845 -0.24724145 0.026978856 -0.35224488 -0.282748 -0.4221145 0.60570323 -0.69143665 -0.29577866 -0.65462554 0.34009323 0.41521314 -0.5150806 -0.052879937 -0.3549705 0.41301087 0.08506958 0.08401694 0.3125166 -0.5876968 -0.18944049 -0.19175752 -0.93994117 -0.022233874 0.7456054 0.18717763 -0.025097828 0.49088338
atribut_vrednost_Noise Level_average 0.08943509 -0.7703759 -0.5215597 0.005400625 0.13109614 0.1476684 0.26127908 -0.052724436 -0.55676246 0.19695407 0.015426901 -0.7086824 0.19380455 0.21868253 0.25618002 0.31625983 -0.15250404 0.70846945 0.09340888 0.01979651 0.08474547 0.5294617 0.27876496 -0.12446032 0.7491337 -0.1364008 -0.41518313 0.2930367 0.13281228 0.17091581 0.2793947 0.0973374
biznis_nZgYNbl1XlZyyKlISMoG6w -0.0199294 -0.018600151 -0.085507244 -0.33169147 0.09268033 0.3807783 0.7635288 0.29544887 -0.54384625 -0.37992993 0.035706006 -0.10932462 0.14153259 -0.89870816 0.04513732 0.8695755 0.31373733 0.09630926 0.32214415 -0.16309401 0.6091446 0.19006124 0.26331243 -0.39286506 0.49134606 -0.41299105 -0.29356703 0.5136412 0.32207257 -0.16745089 0.25856057 0.13198274
biznis_05tazaFQt1EnQ_Gk_1AFyg 0.366345 -0.6526372 -0.6072456 -0.09325724 0.16314638 -0.31893775 0.13184422 0.2635602 -0.3723789 -0.7634681 -0.057658512 -0.33226004 -0.3431076 -0.30728915 0.12399005 0.6206853 0.2956947 0.32857454 -0.057623904 0.52150744 0.8767669 0.10940337 0.29221013 -0.37197417 0.1640095 -0.22591653 0.10854348 0.21944004 -0.040218826 -0.43889305 0.26468837 -0.48294887
biznis_ASOiJ8MmbBTgK2D1_MQrqg -0.034845978 -0.3288537 0.48259798 -0.034068722 0.35280147 0.11733948 -0.31497952 0.03861281 -0.23233029 0.6295338 -0.30522525 -0.9867337 -0.3716712 -0.71291214 0.27090076 0.50285095 0.34273687 0.44597694 0.57601804 0.08951619 0.1830213 0.43815172 0.36318544 -0.3521565 -0.10151566 -0.54949796 -0.81120735 0.21314053 -0.36938667 -0.24416968 -0.031835448 0.22492772
biznis_iXA8Y2bzvZo8MjALfZxrIg -0.09855549 -0.365634 -0.34075567 -0.17878446 -0.25420374 -0.32181767 0.13039504 -0.14181308 -0.51858497 -0.3724362 0.22926223 -0.46179998 -0.11621828 -0.084166884 0.57489103 0.20452839 0.1289575 -0.1793502 0.18634276 0.63445157 0.7243102 -0.2353617 0.6064407 -0.33831576 0.10837999 -0.88506234 -0.22903271 0.40505698 0.39864534 -0.16696015 0.4588567 -0.44558704
biznis_Pz7SWZQhxL6ZbhL9jE2NTA 0.011659897 -0.20439374 -0.12861575 -0.24816367 -0.39562213 -0.12305958 -0.026954396 -0.2895886 -0.6642747 0.33720875 -0.09055037 -0.79569286 -0.26222497 -0.4614968 0.07045854 0.52841884 0.8786343 -0.16000876 0.59613746 0.56600016 0.5984245 0.25229296 0.6679 -0.39434218 -0.023661222 -0.2979802 -0.39873132 0.2708505 0.09922765 -0.3432803 0.06197485 -0.2518237
biznis_mDdqifuTrfXAOfxiLMGu5Q -0.29127884 -0.20277262 -0.28083384 -0.12833774 0.86331034 -0.067708895 -0.14545867 -0.105214946 -0.31818438 -0.033006795 -0.51175386 -0.13436839 -0.36541897 -0.60729724 0.07309104 0.5583861 0.8119038 0.12912965 0.20088531 0.51628405 0.2508354 0.8291167 0.0022508102 -0.7926741 0.514128 -0.42641255 -0.4803498 0.32405046 -0.21573886 -0.18984565 0.12485081 0.40294722
biznis_NsnZ5GhagXBKrCOelxVQxw 0.02183151 -0.36312234 -0.05661419 -0.18754187 -0.33398587 -0.027273312 0.27464107 -0.18586442 -1.08188 0.04145079 0.10937118 -0.15147854 -0.44438562 -0.18263629 -0.035775416 0.28503454 0.40711543 0.51710737 0.51936126 0.58961594 0.67719895 0.13054828 -0.24801545 -0.17783394 0.11260265 -0.83257365 -0.40903226 0.60730237 0.4949844 -0.5407801 -0.102384485 0.11589158
biznis_4GQhbPvGU5r23YdVm8EmkQ -0.41043225 -0.5150606 -0.13457745 -0.56180435 -0.31806085 -0.19738583 0.05014284 -0.10288771 -0.6039646 -0.28945288 -0.34849414 -0.0016231615 -0.3364669 -0.2446975 0.4576567 0.7437948 0.15782404 0.3182684 0.52847046 -0.0057647685 0.48570576 0.9679734 0.48635373 -0.30136645 0.011304402 0.053910196 0.21512048 0.43610168 0.45475498 -0.53337336 0.14491428 -0.020394
dan_odpri_Tuesday_10:00:00 0.0139137935 -0.050847627 0.3233675 -0.028531445 0.56096727 -0.98833746 0.6567011 0.49101022 -1.0725136 0.05619291 0.23412684 0.35801834 0.43149576 0.38836166 -0.21429734 -0.8179428 -1.0613227 -0.6315822 -0.083884306 0.04328235 0.41632333 0.8911994 0.291387 -0.92483073 -0.81143445 0.47426045 0.05191078 -0.25621274 -0.024031194 -0.45225492 0.23026691 -0.56856036
dan_odpri_Saturday_09:00:00 -0.52280354 -0.047064777 0.7622295 1.072352 0.07302261 -0.40497664 0.16869101 0.43200254 0.3619997 0.19578896 0.12042372 -0.07924191 0.2856915 -0.7206339 -0.67829514 -0.5592387 -0.49093843 0.21463199 0.1560513 0.39458427 0.62480146 0.5930441 0.22274087 0.23929824 0.18574496 -0.26370755 -0.20975131 0.8598083 0.7484144 -0.6344656 0.05385991 0.52973807
biznis_vEeiIvhzz29rO-6EPFqkjQ 0.51889926 -0.38348597 -0.038213797 0.13466042 0.6752716 0.170319 -0.6022427 -0.2024026 -0.91675395 0.08308016 -0.099384665 -0.013967484 0.31143266 -0.12391753 0.10442487 -0.013430703 0.121468835 0.50083464 0.33179054 -0.67160493 0.40181053 0.42987725 0.27222788 -0.53952444 -0.0679341 -0.16377875 -0.7163289 0.54571164 -0.021282747 -0.8723774 -0.18959206 -0.10488128
biznis_xNcqwYAUeVOhe3KNC4Xjaw 0.041395035 -0.34319296 -0.4785276 0.42149478 0.15284781 -0.014157383 -0.38548917 0.67548025 -0.5122577 -0.16809769 0.31947348 -0.70532686 0.08473131 -0.72180873 0.2970258 0.3413419 0.30710202 0.53115433 -0.31083706 0.4367513 0.881114 0.7795245 -0.36464274 -0.80696136 -0.20642577 0.29668772 0.04594677 -0.14162347 -0.104987875 -0.28736362 -0.24151258 -0.1877099
biznis_JauLZ0TL3D3VIGtSnStzhA 0.06321781 -0.3066529 0.05721322 -0.014034278 -0.18050475 -0.23947687 0.23091413 -0.08636354 -0.49918136 -0.32196212 0.080812 -0.60766155 0.0251882 -0.2797942 0.07114888 0.44660175 0.4432539 0.24952348 0.19400612 0.5579441 0.8402197 -0.16744329 0.31073305 -0.16048668 0.354456 -0.7909465 -0.016138034 0.44863272 0.3846098 -0.48761436 0.26122683 -0.19195926
biznis_6imLt53br7SJ3av07jjH7w 0.62387717 -0.28023997 0.25907 0.18508752 -0.7111009 -0.07573911 0.3775234 -0.25812444 -0.5884704 -0.44185656 0.10130697 -0.25678563 -0.40141273 -0.24673694 -0.055365607 0.29775903 0.6103563 0.43060854 0.33234826 0.3321002 0.6670662 0.49399757 0.21919157 -0.3932644 0.39049342 -0.39276752 -0.14280379 0.124122486 0.42764467 -0.22724952 0.18798032 -0.3439943
biznis_cMvN1j-LK64zqmT4vnl8NA -0.018607989 0.18694943 -0.03225355 0.37997848 0.61396205 -0.017938484 -0.10154194 -0.06412082 -0.8859125 0.0264656 0.52183676 -0.48953986 -0.089651376 -0.21650642 -0.013856544 0.308016 0.09115998 0.2637327 0.28168988 0.19367662 0.5322743 0.50181276 -0.580489 -0.23287551 0.13073404 -0.83720404 -0.58234286 0.3597585 0.5482629 -0.364262 -0.1495902 0.7269811
biznis_xY1sPHTA2RGVFlh5tZhs9g 0.3077535 -0.36084813 0.012204707 -0.10882899 -0.0179919 -0.10605846 0.37847668 0.122377634 -0.4325102 -0.80683845 -0.049168583 -0.3914115 -0.02064437 -0.11276976 0.32718477 0.7005491 -0.033283353 0.17006566 0.39920786 0.5469643 0.44912726 -0.22409855 0.3745755 -0.6034699 0.49196193 -0.3756397 0.20128238 0.42324686 0.29166728 -0.5733234 -0.076944575 -0.030943085
biznis_AumuGuTg3HqvtwbLPi-ZCg -0.20734978 -0.27380514 -0.034229383 -0.2879988 -0.3364553 -0.71137285 0.2895697 -0.31916034 -0.60339975 -0.25156155 -0.37687972 -0.6493873 -0.3108088 0.031308547 0.23197305 0.36547047 -0.38964725 0.03658871 0.44005045 0.067609526 0.7269864 0.42077738 0.46878293 -0.1354129 0.043325532 -0.30884838 0.26702812 0.6734323 0.18170387 -0.06043047 0.118694715 -0.35264462
biznis_gGeVLZ9j_wAYKbaqgnKSJA 0.4875637 0.19369869 0.4690309 -0.2026949 -0.13619691 0.17358766 0.34869272 0.17167687 -0.9242758 -0.0030663689 -0.13101251 -0.5908741 -0.38904175 -0.25478044 0.17792441 0.35725287 0.5004382 0.14659764 0.8344395 0.4022935 0.31495634 0.4082704 0.5862849 -0.6005465 0.055499215 -0.21278587 -0.7088517 -0.13174088 -0.11928745 0.035857286 -0.24603675 -0.04959789
biznis_WS1z1OAR0tRl4FsjdTGUFQ -0.18784764 -0.5274662 -0.06669143 -0.13660605 -0.20338872 -0.0900917 0.07413297 -0.13171786 -0.45122778 -0.33024195 0.066147245 -0.29409903 -0.12467142 -0.13805847 -0.0678935 0.3757239 0.2712129 0.013930602 0.36547193 0.5477501 0.8827136 0.036545984 0.3026528 -0.19686061 0.110363916 -0.9805368 -0.02299505 0.65276664 0.12739438 -0.50629 0.20344612 -0.34643605
biznis_xfwRO04KbAPw_zRotCfWQQ -0.07200582 -0.18887012 -0.25380903 -0.1282202 0.10114636 0.21146417 0.38462552 -0.48428735 0.13787127 -0.32840607 0.29712433 -0.26309857 0.2912645 -0.12747362 0.7671375 0.14984906 -0.27025965 0.20543586 0.13089101 -0.2355958 -0.13192014 0.48575982 -0.12272201 -0.50306004 -0.2295197 -0.17609873 -1.0122097 1.033548 0.11727497 -0.5234935 0.6030725 -0.25906816
atribut_vrednost_Caters_false 0.22623399 -0.8052884 -0.71859354 0.03720855 0.032140974 0.21605565 0.17808935 -0.013014155 -0.7780342 0.29294422 0.20742255 -0.6564613 0.23582372 -0.08803576 0.40770468 0.16809505 0.021924347 0.87439835 0.13095428 0.2763105 0.031598683 0.3050717 0.5256768 -0.39921337 0.37101868 -0.10350332 -0.22547056 0.21761845 -0.025237137 0.21253899 0.24414895 0.20771836
biznis_-sC66z4SO3tR7nFCjfQwuQ -0.13091007 -0.3551233 -0.70987356 0.09355387 -0.6696859 -0.0068780514 0.3388456 -0.3104557 -0.14064465 -0.6138505 0.09945383 -0.21130192 0.08747553 -0.5264051 0.5185658 0.5091288 -0.2723398 -0.055727903 0.333274 0.035339598 0.08854186 0.18842067 -0.1491031 -0.6853874 0.17284478 -0.12157601 -0.098127306 1.1635454 0.41720366 -0.8108573 0.3439926 -0.014875204
biznis_V6BYjHM9SnXscfkln3hCdA 0.007330697 -0.23784019 -0.061351217 0.0073594507 0.6422145 0.31667197 -0.10570866 -0.14223747 -0.470211 -0.01867149 -0.05324128 -0.35563955 -0.17665866 -0.04655055 0.32286966 0.21307528 -0.7393908 0.3105762 -0.042890474 -0.5882395 0.43825826 0.34192494 0.763735 -0.48502418 -0.42058462 -0.2612964 -0.7299591 0.57076293 -0.043456625 -0.088331304 -0.34279558 -0.35977852
biznis_c12WDNrP2wyQgbnEYDdxCw 0.20747203 -0.10140681 -0.4067996 -0.28689814 0.26775864 -0.046292223 0.36549842 -0.41568977 -0.44287086 -0.10953728 -0.078626245 0.18302616 0.06663866 -0.29791433 0.94626987 0.07476351 0.23335919 0.36017197 -0.5395054 -0.14497967 0.40616935 1.2110608 -0.07640627 -0.5878279 -0.0105041955 0.13234435 -0.64713496 0.22112569 0.7761161 -0.3191907 -0.0029521277 -0.022114433
biznis_-5RN56jH78MV2oquLV_G8g 0.21444085 -0.21774481 -0.32984298 -0.21282454 0.13880788 0.20012408 -0.057139464 0.35148633 -0.165221 0.3581823 -0.38371006 -0.5840288 -0.058635443 -0.6014323 0.90322936 0.39920023 0.3741128 -0.31631917 0.1234733 -0.049074944 0.50872266 0.833284 0.12787865 -0.5138378 0.2340582 -0.20711869 -0.706336 -0.1093229 0.5117429 -0.62610346 -0.11457702 0.09693453
biznis_Z0kyK8wCBNGkkUT9UrMWcg -0.2801384 -0.15765311 0.083634384 -0.14099857 -0.28025728 -0.12688325 -0.51557076 -0.21686244 -0.08843939 0.02959802 -0.21791834 -0.7575127 -0.31561118 -0.26530233 0.5761679 0.7039089 0.3068683 -0.024138488 0.48179013 0.26542425 0.11056413 0.67336994 0.5264946 -0.55836856 0.07087135 -0.13442163 -0.69821125 0.06797226 -0.19919366 -0.5614291 -0.20438358 0.27505156
biznis_O-Xa9GCFWI65YiBD5Jw_hA -0.24942003 -0.57328093 0.2893399 -0.3538395 -0.28655 0.2687516 0.04226483 0.04066941 -0.31516573 0.0013914092 -0.2174548 0.00913161 -0.6192345 -0.2519647 0.8004382 0.4655731 0.28991392 0.5003522 0.15149088 0.1136254 0.3652423 1.1517527 0.348397 -0.43734992 -0.29935044 -0.38113236 -0.7113667 -0.08617549 0.6887096 -0.070907615 0.20380482 -0.048422404
biznis_DO3Gk17RyJVW7zYMCtYPnw 0.5269731 -0.48908907 0.3543394 0.2399328 0.039389182 -0.030657196 -0.3902952 0.012974848 -0.56325865 0.1900035 0.15557012 -0.45862275 0.18526322 -0.035298534 0.76561844 -0.11821834 0.20996541 0.5217765 0.57532954 -0.27288106 0.5442291 0.507582 0.26065648 -0.5217229 -0.030604409 -0.5291196 -0.3269334 -0.06942378 0.03352856 -0.6138644 0.16715312 -0.5222802
biznis_Fh6OndE60vzvyhCX1Wg7Aw 0.3208795 -0.62255144 -0.2554341 0.44240594 -0.62209797 -0.21493256 0.13341887 -0.009897237 -0.76671785 -0.27023956 0.30531913 0.11733829 -0.022432417 -0.39290518 0.07482591 -0.25006518 -0.07672982 0.25671482 -0.13141198 -0.03962917 0.8753095 0.57998186 -0.50833166 -0.5601869 0.12814012 -0.6831537 -0.5595513 0.7130682 0.23759174 0.48537555 0.036902294 -0.16533665
biznis_HbUQ_3dlm3uCacmhTEMnuA 0.49458092 -0.44468978 -0.114449695 0.34166017 0.68510884 0.13440236 -0.058733083 0.093693905 -0.20640616 0.111657016 -0.61943555 -0.82327855 -0.022342222 -0.5034921 0.9710473 0.4318892 0.0948735 0.085271105 0.25773332 0.3118672 0.1798339 0.2045815 0.102990195 -0.51937777 0.16833997 -0.09405776 -0.4113318 0.037649054 0.13986148 -0.7453693 -0.21163301 0.052836318
biznis_jOuERtVf7QePnK9ZcdH5XA 0.31554317 0.41424176 -0.025705172 -0.07073947 0.63090974 0.1705354 0.6116843 -0.0110527715 -0.6899428 -0.41218138 -0.33375773 -0.1919928 0.14737518 -0.3874111 0.5670264 0.20000018 -0.1601992 0.27051315 0.10059998 0.009629792 0.34999844 0.3855396 0.5622976 -0.14568438 0.050045535 -0.2784957 -0.8994936 0.4782954 -0.1958912 0.22214174 0.12328954 -0.114382565
dan_odpri_Thursday_10:00:00 0.0960964 -0.03372296 0.43267635 -0.16684696 0.51315033 -1.0564893 0.67552894 0.5279253 -1.1187103 0.035768848 0.2748484 0.29416525 0.4176991 0.25159913 -0.31110033 -0.799664 -1.0002933 -0.5251875 -0.06508397 0.35165274 0.28631335 0.93643004 0.21340594 -0.86290497 -0.8149669 0.53708893 0.07582849 -0.39594254 -0.11789588 -0.40876725 0.37290576 -0.46949244
atribut_vrednost_garage_true 0.43719068 -0.5735118 -0.40650663 -0.6500897 0.7036748 -0.2906849 0.5839121 -0.23946066 -0.6804844 0.16274624 0.23060155 -0.27415946 0.15536281 -0.5187593 0.4169596 -1.1609541 0.2005258 0.21181563 0.45683944 0.23149104 -0.19023116 0.26349187 1.1117679 -0.46649164 0.39552343 -0.22062933 0.24179813 0.39594042 -0.117274374 -0.2150577 0.40562585 0.41278377
biznis_7q1FpSXbE6XtLNg518pxDA -0.07721523 -0.39505517 -0.39888567 -0.2340549 -0.3491885 -0.52897 -0.10501272 -0.31895283 -0.15181673 -0.62325597 0.59239393 -0.39725265 0.057929076 -0.41106114 0.06909848 0.4677781 0.049937617 0.2344204 -0.21173997 0.48791233 0.9992546 0.045632854 0.011025093 -0.39252287 0.35627192 -0.3761902 0.11670529 0.38336876 0.19021781 -0.33328074 0.29262078 -0.2182752
atribut_vrednost_Price Range_1 0.43064 -1.0799989 0.24195366 0.7017691 -0.09971297 -0.70965564 1.4706703 0.15926233 0.33272743 -0.24670742 0.7140139 0.40506965 -1.1030267 -0.1205684 -0.08426553 0.2097466 0.6187676 0.25685474 -0.31471023 0.59641916 0.9384349 -0.48198617 -0.15021706 -0.21571207 -0.0767253 -0.07937816 -1.2853796 0.071493186 -0.98500985 0.2702482 -0.30047277 -0.22238334
biznis_YacTpiq0ZptFcXD7I-kdGA -0.16515139 0.118896015 0.282704 0.05786589 0.40268004 0.50242966 0.08982005 -0.1312784 -0.8321525 0.44131967 -0.43954757 -0.5995349 -0.4663696 0.07518575 0.45248112 0.18228996 0.21198285 0.66863835 0.39668941 0.28051367 0.5457508 0.835042 0.03296673 -0.16347319 -0.27119282 -0.14648329 -0.8127171 0.2991473 0.067168035 -0.3200448 -0.3080213 0.17090024
biznis_4bEjOyTaDG24SY5TxsaUNQ -0.11518286 0.14199555 0.095127456 0.048718046 0.9151509 0.18108927 -0.32775182 0.012363969 -0.7893638 0.10077724 -0.19465253 -0.5776762 0.098965794 -0.19895321 0.55557233 0.55176777 -0.26655877 0.28138465 0.44442615 -0.09553167 0.43524584 0.38533843 0.580308 -0.34560525 0.019913841 0.026817998 -0.18541601 0.27163777 0.19633158 -0.3934298 -0.097264096 -0.21965551
dan_odpri_Sunday_11:00:00 -0.15745604 -0.59160477 0.5063965 -0.46905625 0.44083953 -1.2918442 -0.6839009 0.40878507 -0.2597333 -1.0115112 0.16051108 -0.30619183 0.38434258 -0.20014594 -0.4648864 -0.37767133 0.09612239 -0.20950465 -0.09604912 0.60370314 0.27884018 0.28985393 0.06099279 0.11691459 0.37906486 0.30108824 -1.0110602 -0.16143897 0.5044868 -0.292837 1.1377589 -0.20108405
biznis_tFU2Js_nbIZOrnKfYJYBBg 0.4042849 -0.1563337 0.2570403 -0.0064429627 0.10824893 0.31477025 -0.08019932 -0.072139315 -0.50776315 -0.08382173 -0.27224973 -0.50600183 -0.34270796 0.13702047 0.5972909 0.12977499 0.027278064 0.19673733 0.52537525 0.1412509 -0.092018135 0.5744625 0.5521084 -1.0136554 -0.24620214 0.35918063 -0.66579854 0.3414615 -0.074674234 -0.34684074 -0.47287795 0.056727905
dan_odpri_Friday_09:00:00 -0.2864639 -0.04545871 0.7521482 0.5670584 -0.30412334 -0.6383935 0.3500648 0.25697044 0.67749727 0.76305324 0.055687282 0.1301413 -0.28771538 -0.9786544 -0.8236479 -0.62759244 -0.5165586 0.5023267 -0.11847526 0.19820137 1.3256661 0.6677107 0.69751835 0.5176862 -0.09915832 -0.23611793 -0.34570408 0.8467119 0.42337498 -0.47185594 0.3812687 0.44777334
biznis_Ensu96ecI0OReupNS2x7ig 0.0030418471 -0.060599033 0.2062261 -0.2013542 0.2582241 0.029485058 -0.02648312 -0.07445632 -0.7692146 -0.012106234 -0.212699 -0.041487582 -0.021363057 -0.24078512 1.0154215 0.38127592 0.20330459 0.47992057 0.48523408 -0.0008765803 0.14780925 1.0622191 0.63692474 -0.3707654 -0.16464135 0.15902653 -0.35435024 0.11602557 0.5830728 -0.25313988 0.02963491 -0.092627175
biznis_1yx2zLskVTe5WQdYjL2Apw -0.012532789 -0.38240036 -0.0745262 -0.39885607 0.09278357 0.4591368 -0.09572031 -0.22391015 -0.19397081 -0.15546648 0.41925973 -0.36064047 0.088476926 0.035832874 0.6093104 0.013127406 -0.5790951 -0.017974751 -0.13281062 -0.3312804 1.0533149 0.38688844 0.5719274 -0.54894924 -0.53458583 -0.24981982 -0.8539355 0.097380154 0.019678833 0.41079557 0.028143428 0.14125936
biznis_xyTJYlbE_MLouK6rCou6zg 0.10454608 -0.25454342 0.4032369 0.20229584 0.31542733 -0.39529175 0.031252865 -0.19886746 -0.50069195 -0.21799816 0.009124642 -0.46352944 -0.09774042 -0.18895362 0.9102667 -0.08797525 -0.3799031 0.3648802 0.20659767 0.103711575 0.4489584 0.48273417 0.523517 -0.10717694 0.04912406 -0.73659796 -0.28777283 0.0854953 0.30288407 0.3040154 0.3275311 -0.41221914
biznis_yD1dRYi7USzhYVKiqZ7JVg -0.3340198 0.07118057 0.05594955 -0.32882488 0.091688536 -0.22945185 0.23507854 -0.23196432 -0.36016867 0.38478824 -0.02249051 -1.0741655 0.11159095 -0.21718447 0.78780687 -0.07822281 -0.19420694 0.26393956 -0.23785062 0.688681 0.6993416 -0.030858858 0.048103847 -0.41149345 -0.36408496 -0.11638964 -0.45354345 0.6575757 0.16817407 0.13451004 0.16264053 -0.24967907
dan_odpri_Saturday_10:00:00 0.35420948 -0.33030644 0.30965897 -0.37243095 0.4340219 -1.0431232 0.8618758 0.14827918 -0.7380136 -0.34510252 0.1310636 0.1735113 -0.4089481 -0.0157826 -0.7090321 -0.31864676 -1.0049499 -0.38170826 0.24566081 -0.22517313 0.15239757 1.0014348 0.56995255 -0.47103444 -0.8054849 0.48896867 -0.06149436 -0.5928836 -0.07031558 -0.33944133 0.34128186 -0.7354723
biznis_CZjcFdvJhksq9dy58NVEzw 0.43644196 -0.11003749 0.16740634 0.23786722 0.82928246 0.06338583 0.17682847 -0.45512888 -0.6193493 -0.07724254 -0.17896451 -0.6914398 0.021901123 -0.040127657 0.4962986 0.14371803 -0.41345406 0.36346677 -0.034771804 -0.30703002 0.10816556 -0.026740296 0.18626957 -0.514995 -0.07881822 0.16132641 -0.61052877 0.59660417 0.15359773 -0.55698854 -0.3238483 -0.10219729
dan_odpri_Friday_10:00:00 0.19945665 0.009875442 0.4379185 0.038467776 0.64920235 -1.0950179 0.84192765 0.3168682 -1.1313988 0.035994995 0.20495361 0.2969272 0.41639283 0.34777635 -0.47032985 -0.4171802 -0.9777432 -0.6571344 0.011526642 0.27086276 0.14892107 1.1060439 0.025427947 -0.69247633 -0.70680106 0.35228023 0.043696593 -0.4350603 -0.027379526 -0.4206764 0.22458747 -0.41355705
dan_odpri_Wednesday_09:00:00 -0.36074933 -0.16720463 0.7112332 0.72361696 -0.12914681 -0.58729786 0.3314977 0.25259066 0.9022764 0.653222 0.22564477 0.09378746 -0.15543225 -0.9537842 -0.67061013 -0.447751 -0.5580132 0.41789347 -0.14790076 0.018853823 1.3789269 0.8072618 0.546716 0.46281752 -0.03820831 -0.11992591 -0.357309 0.7803431 0.3997922 -0.18269724 0.28233483 0.52165985
biznis_8zL3V6rmFKBess3bxPLAoQ 0.17491336 0.2805967 0.32450774 0.04537946 0.3623033 -0.28594714 0.14604467 -0.54487324 -0.7002243 0.08143526 0.4434649 -0.57316226 0.14933605 0.07035761 0.3187274 0.074748166 -0.22172323 0.31448087 0.16067846 -0.58232945 0.16669507 0.2754729 0.36526358 -0.51039195 -0.0707792 -0.10756124 -0.51996285 0.7158643 0.57159626 -0.34139568 -0.017523095 -0.063711695
biznis_KjymOs12Mpy0Kd54b7T9MA -0.17752348 -0.423423 0.14995848 -0.03568042 0.41456714 -0.1642413 -0.4132274 -0.08892655 -0.01930275 -0.076792166 -0.35819983 -0.49147108 -0.3182981 -0.10315327 0.72855145 0.35780653 0.26289704 0.2523896 0.117298774 0.17960362 0.17614663 0.4159549 0.6467198 -0.5242757 0.31453845 -0.6680657 -0.54613084 0.17676875 -0.15433991 -0.6059469 0.09085941 -0.17352742
biznis_eq6lQI039SBLC6sHm3idGA 0.74659145 -0.34175065 -0.26787344 0.33491558 0.5132588 -0.34368736 0.18409936 -0.5826778 -0.021024285 -0.62848294 0.21403779 -0.31219226 -0.3791218 -0.29263863 0.09379629 0.31434122 0.010953099 0.19037952 -0.38661754 0.5617169 0.61304396 0.4478292 0.12507805 -0.61984545 0.29013476 -0.3163456 -0.29140672 0.0881358 0.18752863 0.5573613 0.3630379 -0.29793173
biznis_NK-8zniVfA21IQoQCynrDg 0.108132176 0.5091819 0.010693318 -0.25509465 0.5023522 0.23872094 0.56461185 -0.22568312 -0.66955614 -0.3651609 -0.011676411 -0.08173897 0.3779172 -0.47532222 0.5315024 0.4766165 -0.002916698 0.22306262 -0.010474225 -0.09610322 0.5005105 0.44083774 0.33416048 -0.1833827 0.07039728 -0.20002827 -0.97966236 0.34560323 -0.00453527 0.114670336 0.07022989 0.19317223
biznis_Zx8_4zKdDBSO3qGrkukBIA 0.24883075 -0.19379193 0.26963547 0.014135316 0.00412016 -0.3119793 0.204592 0.045887683 0.13333008 -0.39421353 0.6794737 -0.79241645 -0.23892745 0.051085457 0.48742288 -0.2103344 -0.16787414 0.46653607 0.0028134794 0.036990296 0.32637522 0.3789511 0.20651461 -0.33103633 -0.11388824 -0.31823915 -0.720182 0.6155939 0.006429775 0.13184159 0.5876386 -0.31332558
biznis_YNQgak-ZLtYJQxlDwN-qIg 0.588952 -0.3573381 0.14296232 0.5161666 0.42404765 0.0039695194 -0.03778422 -0.32348803 -0.3083918 -0.35493475 -0.1361912 -0.13659367 -0.24122117 -0.054780256 1.0771332 0.13468729 -0.055133365 0.3176994 0.21300045 -0.13585779 -0.15890335 0.1800735 0.2540157 -0.91448754 0.212691 0.10423659 -0.8306718 0.17652437 0.17229818 -0.23784938 -0.0057826773 -0.032134615
biznis_9Bnc9YP0n5cR57xkP6fQmQ 0.16533922 -0.34099966 0.3492606 0.21615191 0.37632978 -0.20357232 -0.27232575 0.21482281 -0.13124965 -0.13805616 -0.23223148 -0.8203338 -0.17758267 -0.42591742 0.9949548 0.34931675 0.16245197 0.112832986 0.52815044 0.28805143 0.32735997 0.60473794 0.5313147 -0.3285594 0.29579875 -0.27853826 -0.109639436 -0.1170118 0.0040316563 -0.14413375 0.42253542 -0.33390078
biznis_K8pM6qQdYu5h6buRE1-_sw 0.19805212 0.16003816 0.32252526 0.25721434 0.2033166 -0.31691095 0.4907329 -0.28288612 -0.21331066 -0.41536233 0.3683611 -0.73551 -0.43482858 -0.20897754 0.25477716 -0.074255556 0.007077625 0.4589892 -0.07403423 -0.46713614 0.06422066 0.50618553 0.5692842 -0.07621887 -0.22415623 0.010168177 -0.7969603 0.81739855 0.32134476 0.025642268 0.25939873 0.28050616
dan_odpri_Wednesday_10:00:00 0.2158038 -0.030993963 0.45052624 -0.114411525 0.5701842 -0.9860057 0.7756266 0.49441537 -1.1364378 0.106424175 0.23492074 0.29258552 0.46939048 0.34525582 -0.32019776 -0.7391839 -0.9710408 -0.6045265 -0.0003031761 0.24441598 0.24555229 0.9713574 0.16963392 -0.8699788 -0.8095715 0.36334366 0.115591295 -0.3384941 -0.14479792 -0.5776142 0.20836 -0.3957082
biznis_rBPQuQgTcMtUq5-RYhY2uQ 0.5043364 -0.028740924 0.13388254 0.31320906 0.8204843 0.11107755 0.19115202 -0.42394537 -0.57347494 -0.13754697 -0.11402945 -0.7535761 0.09737648 -0.09173406 0.53238 0.123102985 -0.4669284 0.320582 -0.10038055 -0.2504036 0.1868277 -0.09154102 0.28987995 -0.47655663 -0.059999917 0.18992022 -0.66018337 0.6240483 0.070560984 -0.36972263 -0.32636973 -0.07221056
biznis_V1nEpIRmEa1768oj_tuxeQ -0.04900018 -0.33725736 0.2983035 0.00648711 -0.046649415 -0.15855095 -0.09059114 0.52970713 0.26720655 -0.42762455 0.19505659 -1.0110286 -0.09023985 -0.39481568 0.7091692 0.28670982 -0.41733143 0.30504757 0.013710859 -0.08946787 -0.038625102 0.4268624 0.5601309 -0.79868037 -0.01884832 -0.17216018 -0.0789182 0.48329008 0.053124286 -0.3043767 0.123901434 -0.036916327
biznis_aRkYtXfmEKYG-eTDf_qUsw -0.17654568 -0.19674625 -0.17080228 -0.812619 -0.27348772 0.69465894 0.37621 -0.07044686 -0.38507274 -0.41554374 0.58026165 -0.41112408 0.06090622 -0.39264652 -0.25049365 0.29294887 0.21410942 -0.2383085 0.059297938 0.26903188 1.074718 0.2028896 0.18790115 -0.741745 0.013544197 -0.33934987 -0.40711066 0.42189163 0.08735601 0.050666608 0.1444927 0.45015842
biznis_VbI_ryrGPdNRaDrYRJGMiA 0.065711044 -0.80250746 -0.4478923 0.47904983 -0.23787162 0.10169626 -0.13925616 -0.017535001 -0.21953309 -0.52159286 -0.09290383 -0.13697036 0.33126876 -0.5742493 0.08855146 0.35299137 -0.5106132 -0.123395726 -0.16916037 -0.14908254 0.5660172 0.6501283 -0.5300694 -0.7732692 0.07456488 0.026386458 -0.3704722 0.93484336 -0.161859 0.1936586 -0.3449718 0.073216856
biznis_5kRug3bEienrpovtPRVVwg -0.02568134 0.17479502 0.37162918 0.10681245 0.5416288 0.25373888 0.16643536 0.4635645 -0.3439186 -0.8245017 -0.015441121 -0.608585 -0.16719161 -0.10798004 0.4209287 0.40070114 -0.014528502 0.4854545 0.20723814 0.42535272 0.52375144 0.37477332 0.4718801 -0.33734295 0.22006743 -0.32211417 -0.30387914 0.2312322 -0.30571386 0.09646139 0.1520684 0.22459352
biznis_8buIr1zBCO7OEcAQSZko7w -0.5187852 -0.005905016 0.039817184 -0.118833765 0.06763839 0.06728796 -0.20350464 0.009972739 -0.583469 0.1444955 0.26038516 -0.92537713 -0.096221015 0.18689488 0.5690765 0.38520703 -0.20665778 0.18347764 0.34487993 0.7110367 0.63400185 0.18571305 -0.0038234584 -0.068126015 -0.33937395 -0.83438516 -0.67529356 0.35488662 0.18998227 -0.48750457 -0.17956391 0.016505364
biznis_M-vOSYnyuaE2TsFJF0uMbQ 0.04692925 -0.45364487 0.1514407 0.14974149 0.18079424 -0.2580838 -0.005394269 -0.054592874 -0.03475652 -0.51161385 -0.1504583 -0.7243029 -0.032196395 0.10270712 0.97882795 0.21074839 -0.58940285 0.24047047 0.14319004 0.097447835 0.17510974 0.16816929 0.33062014 -0.38668597 -0.1258173 -0.15411964 -0.39602104 0.5980842 -0.11665456 -0.1878143 0.17931628 -0.17451261
biznis_rNahhyqDlouyDMHh57p3ug 0.073882274 -0.06376835 0.25319043 0.20693158 0.02796863 -0.1433977 -0.23263124 -0.24257417 -0.6935559 0.33060387 -0.32690704 -0.83555937 -0.099902146 -0.3086457 0.75629616 0.36502314 0.28225368 -0.050561946 0.8185851 0.062726125 0.28551272 0.9209032 0.5131271 -0.3908424 -0.031360187 0.13690206 -0.25648725 -0.013690737 -0.019915882 -0.1372232 -0.03957978 -0.11403815
dan_odpri_Thursday_09:00:00 -0.28128284 -0.121366315 0.65422684 0.7436412 -0.24042681 -0.6350389 0.5637251 0.22502637 0.9176927 0.8833504 0.040355578 -0.079854116 -0.01106379 -1.0978012 -0.736244 -0.4038687 -0.6008797 0.46689346 -0.30965024 0.04628603 1.1656455 0.7217901 0.4354447 0.48791096 -0.08044192 -0.30462795 -0.30507994 0.76904714 0.36702177 -0.4853413 0.3288967 0.5599215
biznis_VVeogjZya58oiTxK7qUjAQ 0.4573956 -0.32970035 0.29759967 0.1440855 0.351125 0.0202126 0.20568366 0.13050012 -0.065141104 -0.27504584 0.18491855 -1.0433888 -0.24415985 0.011518913 0.8005782 0.015601235 -0.23566848 0.6565998 -0.12649712 0.32166266 0.14289622 0.28199384 0.18369922 -0.58702064 -0.048721336 0.013319477 -0.29472446 0.38058704 0.101521924 -0.28206053 0.12501538 -0.37539795
biznis_KcSJUq1kwO8awZRMS6Q49g 0.28102076 -0.27257684 -0.47342187 0.08270502 0.20573929 0.032110747 0.12256385 0.19773541 -0.8740746 -0.3111097 0.4524842 0.11568469 0.20478961 -0.6890935 0.09060495 -0.07084555 -0.13255295 0.11375791 -0.2914401 0.13346647 0.8765786 0.4489414 -0.5355746 -0.84151703 0.4029491 -0.67993504 -0.39356863 0.3790659 0.067785695 0.4336556 -0.10130741 -0.050373547
biznis_50nln4YPr0QDo_v1uBmHfg 0.3395702 -0.14333396 0.27165443 -0.39988223 0.26575035 0.32332218 0.45133993 -0.32805836 -0.15157312 -0.047171775 0.74992394 -0.5564238 0.10066468 0.062252216 0.34428856 -0.23083808 0.14620037 -0.017030591 0.06341482 -0.53539044 0.57576793 0.50185895 0.10227326 -0.58152246 -0.22551066 -0.114334784 -1.0409188 0.5373799 0.18454655 0.16124585 0.44365504 0.30881235
biznis_N50HceZf1595UtU867u4uQ 0.058653478 -0.5353294 0.015736876 0.23156355 0.38649702 -0.28740802 -0.47144684 -0.07638618 -0.008394732 -0.20445865 -0.20171775 -0.5626398 -0.43902722 -0.2353963 0.6749123 0.40513453 0.37420493 0.18854149 0.08555418 0.48520577 0.23747237 0.4008278 0.44843927 -0.37110397 0.2592063 -0.75311244 -0.6493842 -0.04016611 -0.11945881 -0.43164536 0.07591874 -0.0725073
biznis_RhbOa-Ft3sZB4B_1j5LfyA -0.109072514 -0.51438797 -0.0623962 -0.20703582 0.4379959 0.5488244 0.07563574 -0.56310874 -0.12779063 -0.34150314 0.23302805 -0.30388114 -0.34703106 0.02433317 -0.08993887 0.29280576 -0.4042873 0.2650096 -0.34023717 -0.26227933 0.98196644 0.67444164 0.36957258 -0.6915177 -0.46678692 0.15644725 -0.44540673 0.372865 -0.19538036 0.34323683 -0.25605422 0.3619418
biznis_SLyacGZuMUKqrQJEooSkjw 0.082250684 -0.5917533 0.17940052 -0.023632038 0.72918963 -0.3824315 0.07089674 -0.34385073 -0.18806452 -0.23459367 0.01423646 -0.49394703 -0.1480238 -0.37163123 0.90454 0.42930412 -0.4288494 0.22211806 0.19787401 -0.114647456 0.36245802 0.5088842 0.23647682 -0.19223922 0.07236716 -0.3898049 -0.04153248 0.13183543 0.22840407 0.10636155 0.4266209 -0.15530539
dan_odpri_Monday_10:00:00 0.11405601 0.20660736 0.18952514 -0.22536398 0.64105 -1.1172358 0.6257063 0.2715563 -1.1542852 0.017889485 0.24356177 0.18768658 0.46186665 0.25541964 -0.4740666 -0.7393591 -0.8335546 -0.7128393 0.015562282 0.22037084 0.38710573 1.1137834 0.19902249 -0.70065033 -0.7790455 0.4556313 -0.019050643 -0.19518793 -0.13441446 -0.42021376 0.21688062 -0.33613476
biznis_FV16IeXJp2W6pnghTz2FAw 0.5445133 -0.5767944 -0.013086264 -0.57857335 0.18949322 0.0598992 0.13020971 -0.6758895 -0.26911122 -0.18708625 0.20464602 -0.25023243 0.1629846 -0.023014449 0.3039162 0.15700087 0.17527147 0.25686607 -0.005999034 -0.0034508395 1.2379651 0.33492267 -0.1951804 -0.42512017 -0.40852192 0.31761315 -0.70461535 0.17444043 -0.05438958 0.10831441 0.30787653 0.30169237
atribut_vrednost_Take-out_true -0.20214014 -0.6563087 -0.3341899 0.18190537 -0.20718423 -0.06411951 0.24502562 -0.05686212 -0.7770983 -0.1519704 0.25464025 -0.81419635 0.3805512 0.39172095 0.0066948854 0.9568942 -0.24533708 0.29028264 -0.08021205 -0.015305141 0.08263569 0.44957802 0.4089605 -0.06740415 0.54653734 -0.35899818 -0.7953763 0.12635553 0.19132744 0.47789064 -0.025516419 -0.003808706
biznis_jh7S78tc9oXCDjAjP_OrLw -0.45747948 -0.35228398 -0.07067781 -0.06771018 0.060629446 -0.5114323 -0.40017378 -0.68917155 -0.2819522 -0.17135544 -0.14576821 -0.44396022 -0.2964854 -0.16370766 0.17744538 0.5619152 -0.2095313 0.42598155 -0.00556093 0.07158619 0.28958046 0.6485765 -0.10083383 0.035655465 -0.071638405 -0.6776422 -0.8016412 0.62319726 -0.20078862 -0.42783058 -0.13520548 0.6666536
atribut_vrednost_Alcohol_full_bar 0.12004416 -0.6215096 -0.46222124 -0.12342369 -0.029556831 0.3846374 0.116839066 -0.4382452 -0.7743261 -0.07113137 -0.037493892 -0.6236066 0.48227924 -0.119385324 0.056611333 0.20302725 -0.14682329 0.53342605 0.46227413 0.28842685 -0.30688035 0.41579977 0.57590926 -0.21704197 0.7009571 -0.46239302 -0.4205513 0.38329586 0.050649744 -0.23900644 0.37471458 0.014469963
biznis_FURgKkRFtMK5yKbjYZVVwA -0.2264217 -0.2508731 0.101468906 0.17152697 -0.18278494 -0.2139782 0.25886166 -0.059426103 -0.2850334 -0.8855526 -0.06895054 -0.20092814 -0.15357064 -0.41619012 0.13743116 0.7680404 -0.09594792 0.26335347 0.3980964 0.053427845 0.27948132 0.4535604 0.5511443 -0.41408718 0.49716362 -0.2629972 0.39041206 0.88067937 0.20418954 -0.2364834 0.19478536 -0.022665529
biznis_LLDGTT7FExklkQvHebEjRg -0.24534959 -0.4750576 0.08116659 0.1039843 0.3997107 0.046613 -0.19657773 -0.010566357 -0.7883948 -0.04124857 -0.25927362 -0.45665887 -0.050461296 0.11958889 0.7364026 0.29339245 -0.26671004 0.25049812 0.616142 0.40419492 0.28779262 0.33495358 -0.27090296 -0.5001891 -0.10364289 -0.49926978 -0.30980274 0.67501676 0.026190748 -0.5574866 -0.45928022 0.26254928
biznis_sIyHTizqAiGu12XMLX3N3g 0.19776379 -0.54612374 -0.16154312 0.20080917 0.39652216 0.24688533 0.3122034 -0.7547746 -0.20660818 -0.13271345 -0.26366228 -0.06593843 -0.031729896 -0.3401697 0.6554509 0.17881554 0.026617903 0.17276394 0.036741 -0.24979745 -0.0559592 0.23536944 -0.45730132 -1.17357 0.33944356 0.042980533 -0.5517493 0.8196072 -0.033164073 -0.46611324 0.2711297 -0.17499653
biznis_sL4n5lhxqoZ5l0d8gwIPyA -0.018080415 -0.73690546 0.14057466 0.009493793 -0.37006703 -0.44545367 -0.2677883 0.07397665 -0.04065264 -0.65499586 0.24424644 -0.4765362 0.081417955 -0.032646086 0.2320604 0.3966325 -0.6057072 0.42168826 0.14135301 0.050323583 0.45711994 0.537421 -0.0873878 -0.7521287 0.09145664 -0.12355349 0.29517987 0.72603005 0.19061764 -0.18773697 -0.16826086 0.26207206
biznis_DxUn-ukNL27GOuwjnFGFKA -0.13109513 0.27681008 0.13034143 0.14267255 -0.28312448 0.030836158 -0.13494746 -0.4834571 -0.49167272 -0.0035880222 0.10809411 -0.69338334 0.029699283 0.107227676 0.1926833 0.32754922 -0.09087646 0.69869876 0.061921444 0.23982705 0.6541213 0.9482113 -0.38973248 -0.25603145 -0.21508306 0.12823315 -0.5790321 0.40448675 -0.11613241 -0.3891353 -0.32392195 0.14686139
biznis_8Pzdk19tA2bKlKDSgwWqoQ 0.33241954 -0.49593487 -0.032257766 0.28100076 0.45887765 -0.12668383 -0.2033145 0.035928562 -0.5993679 0.29882205 -0.46440628 -0.45263588 0.08466172 -0.81625164 0.6852483 0.31805465 0.2016811 -0.033226565 0.5397401 0.11667104 0.53558224 0.69645345 -0.0994571 -0.4195384 0.34330314 -0.095187925 0.116369486 0.042172607 0.25147843 -0.44400603 -0.21370487 -0.14272806
biznis_zNzJkzZxPTeTbRIRfeU9_Q 0.01535164 -0.14348814 -0.3495215 0.35283014 0.30391356 0.30171138 -0.2882609 -0.44845706 -0.53473485 -0.082466766 0.32721198 -0.26021504 0.039391797 -0.12234821 0.070646726 0.19106473 -0.49899438 0.22967377 -0.15204574 -0.3801933 0.9295289 0.45877162 0.31070447 -0.5060076 -0.30815122 0.086976044 -0.48011708 0.5746792 -0.07065908 -0.010860694 -0.4422376 -0.30380562
biznis_tI3J5jomrBs--n7r92186g 0.5030149 -0.27739984 -0.68906635 0.21874337 0.25626367 -0.44816145 -0.22119763 -0.22888668 -0.54785585 0.0002801176 0.44783637 -0.5899622 -0.47388503 -0.108507074 0.09255269 -0.03762435 -0.29613873 -0.43298402 0.15432405 0.11936445 0.68262494 0.5591576 0.4577515 -0.45166498 -0.5174206 -0.26911458 -0.38142467 0.28814566 -0.033584714 0.27622804 -0.35335928 -0.16564587
atribut_vrednost_Wi-Fi_no 0.46566194 -0.42518118 -0.6653856 -0.16159543 0.021973865 -0.24349566 0.18795897 -0.2129303 -0.84587467 0.20800313 0.187066 -0.6818872 0.13948259 0.2600613 0.38036337 0.07565126 -0.059270654 0.80862767 0.15720029 0.5012515 0.06408719 0.36222848 0.32310295 -0.28851628 0.65650237 0.08196791 -0.45089662 0.258497 -0.07081298 0.33807805 0.27118254 0.08990915
biznis_3MmHmJXr8Ltk_Z5EGE4KUw -0.4893201 -0.21651725 0.16015132 0.03285795 0.50018007 -0.101297066 0.108577155 -0.09748487 -0.6652915 0.69616944 -0.5590589 -0.80014914 -0.09509127 -0.6172786 0.76571894 0.124976516 0.17389509 0.05638337 0.21595317 0.42046684 0.5397258 0.6562132 -0.026915867 -0.7599535 0.11569689 0.13146925 0.23693348 0.5286177 0.2804306 0.14304972 -0.18935108 -0.25318566
biznis_3fV9sL5LklD9ZSeONKmjkw -0.14417642 -0.40069857 0.06735216 0.52119523 0.36200166 -0.38700837 0.04370878 -0.42972606 -0.40062657 -0.24503613 0.09488798 -0.39893758 0.07019421 -0.273914 0.669127 -0.09779036 0.26955682 0.30036244 -0.37116548 0.7194961 0.60241485 0.09265704 0.33144984 -0.58679956 -0.023951123 -0.70498043 -0.08603321 0.52710354 0.32210705 0.27746192 0.20310496 -0.38912475
biznis_vPnwX30Gn0oa4dVBL0W4Ww 0.4127421 -0.47849596 -0.3664057 0.3303883 0.2509291 -0.49159208 -0.14803015 0.001955355 -0.11869737 -0.5930111 0.22339621 -0.66807073 0.09610964 -0.45504987 0.29407614 0.027631642 0.15971294 0.40943882 -0.31896412 0.39273077 0.84530103 0.38921043 -0.09178271 -0.5217195 0.122539766 -0.015953692 0.04709955 0.20087995 -0.300681 -0.13759415 0.24456573 -0.46655396
dan_odpri_Tuesday_09:00:00 -0.23679863 -0.1832327 0.7039344 0.7959302 -0.3276445 -0.65544987 0.44623163 0.18258435 0.899057 0.8000029 0.05944406 -0.002400057 -0.15820716 -1.0643722 -0.92048764 -0.3526493 -0.46193293 0.49533084 -0.13688877 0.039664578 1.2300439 0.7868387 0.47673467 0.49276793 -0.061907645 -0.2773417 -0.37171292 0.8068109 0.3731427 -0.4928963 0.30394444 0.5337702
biznis_lPh02W25cOrAz57UbTpbFQ -0.3291238 -0.2425314 -0.13161841 -0.08169398 -0.054525718 -0.392618 -0.2870078 -0.3957794 -0.6574976 0.15701394 -0.018801624 -0.6392237 -0.0952408 -0.20730281 0.17212318 0.13023895 -0.010045267 0.4531198 -0.038214847 0.750492 0.63608104 0.266628 -0.22932927 -0.09647877 -0.24000235 -0.66690105 -0.5940479 0.84600604 -0.039921783 -0.18287572 -0.15152378 0.13846658
biznis_-2n-OHbbwIv3SY8RP9bgTQ -0.05205328 -0.53558 0.18899763 -0.0068314024 0.2887015 -0.29147932 -0.055651378 -0.3156751 -0.12785096 -0.5402563 -0.18732947 -0.5696487 -0.13458273 0.27538285 0.9812194 0.2544899 -0.47997218 0.07780217 0.106623285 0.073802225 0.25417483 0.3481283 0.32846555 -0.52197284 0.07444561 -0.34348312 -0.18957423 0.47041485 0.06675119 -0.13740951 0.17847593 0.122014
atribut_vrednost_dinner_true 0.102370024 -0.62049794 -0.42714086 -0.4506241 -0.16489993 0.18669462 -0.04532553 -0.25196233 -0.7803638 -0.064621545 -0.33498108 -0.93461907 0.1760041 0.10845475 0.068876505 0.15805554 -0.26629204 0.62008363 0.119535826 0.51776177 -0.051788688 0.6517447 0.28964144 -0.19447696 0.6974413 0.12209874 -0.28635305 0.18962997 0.14523013 -0.2421138 0.33853814 -0.043141194
biznis_DIlh3Ta7-7tfjKL1apaYHw -0.3321636 0.18838212 -0.078542344 -0.12212469 0.2644179 0.5097161 0.24912155 0.047013763 -0.4668674 -0.2951657 -0.38965362 -0.09096044 0.023157569 -0.9738592 0.06841223 0.6162129 0.21300986 0.09201531 0.16718015 0.24327852 0.7580501 0.51873523 0.2250949 -0.5308028 0.33168703 0.060922273 -0.4771861 0.55085087 -0.6065228 0.3848751 0.14074391 -0.13144992
biznis_PXviRcHR1mqdH4vRc2LEAQ -0.15857288 -0.18117213 0.3353277 -0.020110348 -0.055196658 -0.15380678 -0.058371544 -0.14099549 -0.44725332 -0.5764497 0.19956875 -0.2322134 -0.05175933 -0.23379722 0.38990715 0.11319675 -0.3906062 0.20491743 0.17163014 0.21831071 0.81984514 0.55133903 0.1476556 -0.40673673 0.44159675 -0.68761325 -0.19889912 0.25078803 -0.1597101 0.54353964 0.28017935 -0.17446877
biznis_gkWEjZIVcrUerEzed6IKpg -0.032181133 -0.40277788 -0.15661426 0.053230703 0.028025094 -0.53862727 -0.44160876 -0.31021667 0.03469178 -0.5296223 -0.03489566 -0.49396718 -0.3257809 -0.07496143 0.6143989 0.3483122 -0.044854574 0.19385906 -0.07465649 0.13319647 0.18508227 0.45830452 0.3489823 -0.3632704 0.17819443 -0.7071984 -0.6859008 0.35853142 -0.20676735 -0.44119546 0.21514991 0.04226957
biznis_Y2BXS2OOrlMSYfS5xdjtmw -0.4783689 0.08652353 -0.036199737 -0.1906538 0.4107209 -0.09935763 -0.09529307 -0.46144566 -0.28508782 -0.1738857 0.58646935 -0.44484445 0.07303111 -0.17007567 -0.3578108 0.4043191 -0.47266683 0.17647837 0.01677113 -0.7278154 0.42940286 0.65423554 0.11000078 -0.5673659 0.030176979 -0.16277099 -0.39375603 1.0100137 0.02074068 -0.31707138 -0.09091953 -0.017200042
biznis_Xsp9Dy4PQgAssCVk2-f73w 0.17820871 -0.41632992 -0.16894156 -0.6411897 0.10984359 0.13330306 0.13567276 -0.7240661 -0.22214065 -0.38003185 0.45665285 -0.18218695 0.095099136 -0.09424066 -0.02910522 0.26588202 0.04500923 0.17781338 -0.09995518 -0.19096074 1.448657 0.4930682 -0.2126972 -0.32173783 -0.19180614 0.17804162 -0.70213616 0.178468 -0.019253435 0.1465 0.31924543 0.43043685
biznis_5IWu0xhlZEopvIz3w7o_3w -0.2846075 -0.36816418 0.07481006 0.068035774 0.51262134 -0.1836514 -0.25616762 -0.2449043 -0.92549056 0.25621992 -0.21672752 -0.3853095 -0.23589425 -0.20573969 0.6479838 0.38617024 -0.1496383 0.41286847 0.5881646 0.28596202 0.55151993 0.5441948 -0.057920624 -0.069877446 0.021528047 -0.42039585 -0.100212045 0.5019609 0.27500516 -0.30852807 -0.2664534 0.10350077
biznis_Xhg93cMdemu5pAMkDoEdtQ -0.077127695 0.14141032 0.004408994 0.40707523 0.3565426 0.0029771368 -0.2960433 -0.04155349 -0.4926106 -0.38121784 0.33187255 0.14995393 0.20492917 -0.3648317 0.9542939 0.51634526 0.0070144488 -0.12985007 0.35513845 -0.0821699 0.3952644 0.7463576 0.25268006 -0.852454 0.5368708 0.11044889 -0.2511284 0.12063482 0.41947502 0.2141961 0.16215165 -0.13155732
atribut_vrednost_lunch_false 0.15412524 -0.7446114 -0.6851139 -0.111210935 -0.04052386 0.6681394 0.2891784 -0.125581 -0.3855494 0.19448185 0.13099484 -0.7770027 0.3598789 0.22295457 0.376331 0.26718608 -0.036120683 0.75330853 0.19670688 0.3199812 0.38796505 0.69978565 0.40912572 -0.20122696 0.35279635 -0.10102682 -0.24167094 0.118796885 -0.3043343 -0.062333208 0.2121083 0.06123991
biznis_wNsmt1hF1uv3YvbwXZMAoQ 0.033214293 -0.33674088 0.47194806 0.44158593 0.10183222 0.073568076 0.33022788 0.2774285 -0.3868375 -0.62731636 -0.017956384 -0.21236649 0.010205009 -0.2705976 -0.08949612 0.3246069 -0.19670641 0.4487913 0.05836618 -0.21477483 0.6113483 0.38566008 0.21531115 -0.5557596 0.250516 -0.6011795 -0.10607937 0.8343474 -0.052286923 0.38662285 0.000109951216 0.023099352
biznis_ZP6qFq7LUh6Tr7WHPoOW6g 0.11053675 -0.012000094 -0.15920268 0.6411897 0.16828589 0.5903681 0.00084710517 -0.37644878 -0.2214441 -0.38885653 0.5373832 -0.13092656 -0.3912552 -0.06252138 0.42592895 0.114831425 -0.1148943 0.23018284 -9.711148e-06 -0.09963079 0.48230553 0.7533432 0.61808574 -1.0948777 -0.08829368 0.282756 -0.42830968 0.290622 0.17663375 0.4417881 -0.16159332 -0.12595476
biznis_YrIfgzLj0DPStJ1ESAS_Qg -0.1556636 -0.10465827 -0.0044844216 0.05151829 -0.13294952 -0.37324765 0.16774502 -0.3271371 -0.35090518 -0.15019563 -0.1350736 -1.056352 -0.0228702 -0.34704253 0.6581285 0.22719671 -0.54748356 -0.021371642 -0.07072144 0.567422 0.47993773 0.28236723 -0.22050832 -0.66611534 -0.073609695 0.37259328 0.0078631295 0.70976585 0.047719236 0.27376977 -0.2338198 0.23206975
biznis_IRYj1b1-mlXqABVsl9SoqQ 0.39149746 -0.28257918 -0.94362843 0.034300115 0.3862674 -0.41311505 -0.013463936 0.20558436 -0.16922972 -0.48834112 0.45677865 -0.45899674 -0.32256556 -0.29521382 -0.15722376 0.16631223 -0.16410547 -0.52162546 -0.10708761 0.24800928 0.9881072 0.7478461 0.009455816 -0.5337371 -0.24627458 -0.28475854 -0.44227666 0.07370471 -0.2589463 0.25575185 -0.21398154 -0.23854487
biznis_npfVfumxVAkQNYpY1fSvew 0.27251148 -0.097083725 0.32286364 0.16434516 0.28904516 -0.01945403 0.33417675 -0.15452404 -0.48979235 -0.50027055 0.21402422 -0.26053178 -0.26388773 -0.32748675 0.11629398 -0.12084801 -0.118784636 0.22571678 -0.122057185 0.15503632 0.7880905 0.3943945 0.19161455 -0.55926645 0.4420609 -0.80324644 -0.37853926 0.11753027 -0.15477318 0.64156306 0.20097399 -0.2608441
biznis_z67yrh03lRSANrpPsRcTfw -0.17839704 -0.07650466 0.122877434 -0.010585404 0.37439373 -0.4352504 0.1023115 -0.17124906 -0.43834606 -0.5356372 -0.16332048 -0.44571716 0.054984346 0.058295853 0.738263 0.3482768 -0.512368 0.24368483 0.110816315 0.08586449 0.56032616 0.55402243 0.27823198 -0.1410529 0.24924444 -0.40107724 -0.059454177 0.37132642 -0.024284871 0.14269727 0.3529637 -0.29156205
biznis_pPfQ73--Y_h5Or0aqDgEGA -0.070178 0.016642578 -0.116985306 0.39189243 0.08006865 0.41268396 -0.019116199 -0.5241319 -0.5825898 -0.16144708 0.12131911 -0.33941293 0.04177501 -0.017114116 -0.031920787 0.1296931 -0.30993277 0.78073245 -0.33129552 -0.2968292 1.134013 0.5172922 0.04475532 -0.3164122 -0.21331246 0.28349677 -0.47645405 0.649837 -0.16356216 -0.09003153 -0.34748223 -0.21239637
biznis_OE5nAmaSVaopeRS1Cs9Kuw 0.21607748 -0.15419912 -0.029462408 0.076970845 -0.056811526 0.008604697 -0.2757451 -0.18215396 -0.50244766 -0.13110352 0.053272884 -0.33316612 -0.19158773 -0.29115504 0.36903727 0.48243958 0.35213807 0.74547684 0.34806144 0.5886475 0.17020103 0.7419454 -0.3756219 -0.5660432 0.0634469 0.447939 -0.5267274 0.43945292 -0.11468901 -0.5903746 -0.46161518 0.36680183
biznis_QbmcCE_cLq4WO8ZMKImaLw -0.14875798 0.15860803 0.029557526 -0.057340514 0.66862786 0.39508906 0.5780395 -0.2608543 -0.60545915 -0.3895587 -0.3021605 0.04899687 0.15430056 -0.6329664 0.24409278 0.3644828 0.06276654 0.32505864 -0.076024346 -0.010577519 0.4060876 0.4950884 0.25156114 -0.5911379 0.21808338 -0.25013047 -0.58315414 0.70496494 -0.37732497 0.30105937 0.0146402335 0.027711123
biznis_2e2e7WgqU1BnpxmQL5jbfw 0.016911712 0.35822862 -0.12901859 -0.16257168 0.14072725 0.113339186 0.86328834 -0.18733445 -0.6888513 -0.35041326 -0.2011457 -0.30844367 0.014581489 -0.74106765 0.081284136 0.39222902 -0.11546755 -0.09713865 -0.35380512 -0.31365237 0.6760868 0.44504362 0.13373296 -0.48558596 0.26079306 -0.25103137 -0.56621957 0.2485486 0.052343696 0.37238315 -0.043343358 0.18866046
biznis_j2KCZNlWnu-L4j0yJ3zAHA 0.29581666 -0.059872486 -0.1637235 0.19574715 0.66809386 0.19723158 0.07666184 -0.9953291 -0.49177217 -0.2569366 -0.11587662 -0.3062987 0.12829491 -0.19515605 0.14919417 0.403889 -0.2468011 0.09354438 -0.26132447 -0.10455627 0.4681487 0.196496 -0.04559817 -0.6868966 0.31586584 0.35517552 -0.40779543 0.78547686 0.14925613 -0.38631263 -0.40726689 -0.029429296
biznis_rZbHg4ACfN3iShdsT47WKQ -0.2774377 -0.4328229 0.18473037 -0.15650372 -0.0652842 -0.15381764 0.024181543 -0.24125141 0.22065912 -0.7200163 0.16047494 -0.64386845 -0.06988573 0.17835769 0.43175173 0.4011958 -0.42393702 0.30349258 -0.06547998 0.043975547 0.2569812 0.39906257 0.008182043 -0.75687337 0.1248788 -0.17018741 -0.25914007 0.64832854 -0.12646161 -0.33597544 0.16656895 -0.007279361
biznis_Q_Rwcv9APBLggk2KAsBEvg 0.085243806 -0.5218399 0.015528685 0.1392723 0.2679808 -0.32831505 0.07729067 -0.1970377 -0.19317059 -0.59441864 -0.21747303 -0.60755634 -0.20153427 0.07331489 0.82773507 0.2981873 -0.6040363 -0.25314948 0.2630112 0.11933117 0.16888446 0.19783156 0.39946955 -0.42955247 -0.02051788 -0.5036176 -0.3203072 0.60889494 -0.105869904 -0.0028461 0.030370088 0.0074633136
biznis_DjOxXobyGDwWt89q4z1twg 0.08832266 -0.11975014 0.23509462 0.4028627 0.036029562 -0.30958244 -0.13275233 -0.46164453 -0.87144756 0.025912313 0.28911498 -0.5212808 -0.27597818 -0.4887923 0.24681634 0.124316506 -0.47647682 0.5584055 0.33443615 0.2709085 0.63183326 0.9079862 -0.48671523 0.06276549 -0.07811944 -0.30721053 -0.2623496 0.23144539 0.14818288 0.36289424 -0.20911032 0.15948533
biznis_ieYiud3trM-9e7E8YUhK0g 0.025638534 -0.10515594 -0.37188873 0.2501262 0.27294114 0.26659912 -0.14457144 -0.6064974 -0.538825 -0.20382226 0.25040117 -0.26669383 -0.07749147 -0.09226422 -0.17390653 0.20742805 -0.57528657 0.20025489 -0.14641267 -0.4478715 1.0054903 0.50773716 0.271445 -0.39066848 -0.29448944 0.02892354 -0.5400097 0.6499569 -0.14149886 0.08555661 -0.374639 -0.12808175
biznis_3OB5gQqibKGTzx9R1w7wKQ -0.534957 0.022676427 0.09218088 0.06185907 0.09285891 -0.21341693 0.38093615 -0.011260663 0.01566525 -0.34021127 0.5622697 -0.84986746 -0.37944967 -0.27182826 -0.23127504 0.26249626 -0.007406055 0.09623617 -0.25307924 -0.4234332 0.40965196 0.92189574 0.14736766 -0.16672036 -0.232845 -0.08390641 -0.4176852 0.90356696 0.17967583 0.08976826 0.3454182 0.35640636
biznis_zp713qNhx8d9KCJJnrw1xA 0.11775369 -0.3367038 0.25571334 0.50496906 0.058637813 -0.19671991 0.34600294 -0.2954016 0.037725065 -0.7051066 -0.012002446 -0.7569347 -0.42785656 -0.022261817 0.26518044 0.32200205 -0.27660796 0.34853846 -0.22544616 -0.06568984 0.1787854 0.71948504 -0.09065487 -0.5950796 0.2296645 0.010571009 0.046186052 0.57845235 0.051760715 -0.15004268 0.043427438 0.094222635
biznis_a4cMKOjdVLTmJNhRl6-17g -0.11934956 -0.2387971 0.106465474 0.32912806 0.20056958 -0.1627431 -0.1791163 -0.1910709 -0.4090734 -0.07188001 0.17291398 -0.58063275 0.04710373 -0.10916184 0.4099904 0.118565254 0.4396132 0.23228891 0.08747248 0.6903685 0.5713093 0.20475163 0.15053003 -0.5531799 0.24724554 -0.7701669 -0.14992973 0.4463595 0.0497902 -0.22455446 0.13498156 -0.39677897
biznis_XgfKcL7eBJE9B66qoaIlJQ 0.0724884 -0.31959125 0.353834 0.3107465 0.3099077 -0.6153342 -0.030766644 -0.2726333 -0.31266007 -0.3165565 0.04942973 -0.6091427 -0.1807738 -0.31633246 0.049195368 0.12239756 0.40557453 -0.085575126 -0.22025895 -0.75151855 0.5312724 0.8290661 0.07388161 -0.52897227 -0.052748628 0.43967238 -0.54584324 0.3187289 -0.1721585 0.3566483 0.12288554 0.62986875
biznis_zTCCbg7mGslxACL5KlAPIQ 0.3180056 -0.17403007 -0.050444495 0.11045487 0.7002517 0.10543965 0.02101143 -0.5761454 -0.6123444 -0.119783044 0.11122693 -0.31335786 0.06278165 -0.25025702 0.36734867 0.246795 -0.27334967 0.48580596 -0.24592543 -0.08831367 0.4289406 0.14054076 -0.1826639 -0.9051296 0.22101848 0.34831116 -0.18777151 0.5427782 0.18392734 -0.42842397 -0.47188535 0.056883376
biznis_H_SuH7uLiYahDMbNBB9kog -0.040895235 -0.44817168 0.46880394 0.08476085 0.18062139 -0.52842563 0.013233682 -0.3546148 -0.051572714 -0.30690536 -0.008910734 -0.81259215 -0.3863282 -0.5231439 -0.08469184 0.19438182 0.012632932 0.19773953 -0.39634854 -0.1951013 0.7190684 0.4311044 0.15342766 -0.6431736 0.20341845 -0.2215035 -0.18039212 0.0788208 -0.40846953 0.4238369 0.12489919 0.11469497
atribut_vrednost_Price Range_3 -0.064078525 -1.1241322 -0.19021578 -0.35092357 0.19495337 0.26278713 0.012840173 -0.50937355 -0.38923532 -0.22059882 0.7688781 0.70789367 -0.83140683 -0.2566053 -0.07077983 -0.8421724 -0.0764581 0.1336633 0.88799983 0.31018093 -0.026085412 0.9946766 0.09064776 -0.9775635 0.2969754 0.46336725 0.5354907 0.17235652 -0.0994739 -1.3712684 -0.14260823 0.57393044
biznis_BqrTtox0JbG-P_DKBB5bBw -0.29260725 -0.20424347 0.2955659 -0.11259686 0.39423972 0.073062226 0.21331106 -0.21279815 -0.4027385 -0.35150623 -0.08046051 -0.3358176 0.010532063 -0.3543982 0.19793959 0.11015803 -0.10507299 0.16497754 -0.0011756428 0.3519173 0.50313944 0.23205973 0.16020247 -0.71540385 0.4465533 -0.94611573 -0.27947286 0.5386268 -0.31308675 0.3841 0.27712986 -0.20431097
biznis_vxxMqBaAHuWdx4impsLSSA 0.47030568 -0.5062836 0.48012894 0.096627235 0.4650977 -0.5755148 0.044779293 -0.49941975 -0.16470906 -0.20801656 0.08064102 -0.8042051 -0.19435054 -0.42087978 0.17034127 -0.062319335 0.17999817 0.16691308 -0.17909019 -0.05049771 0.54428965 0.23041396 0.13319914 -0.8216227 0.32645452 -0.16078827 -0.050291505 0.07803152 -0.36112797 0.267914 0.1954634 0.06698629
biznis_OiCxoAIoBvEWxf7p1qVVmA 0.1188688 -0.25707814 0.10962628 0.2939736 -0.04138223 -0.18000093 -0.23343042 -0.3777003 -0.6512545 0.34501642 -0.35976243 -0.57624966 -0.22140503 -0.50747085 0.49057648 0.36174628 0.51824856 -0.009226325 0.6956784 0.23694697 0.30514085 0.9191222 0.23489237 -0.6228962 0.253777 0.13623352 -0.06503723 0.23110673 -0.09232588 -0.06740245 -0.15348604 -0.102690496
biznis_jq_YnMQjcArdBWuwRospFg -0.14078018 0.27829218 -0.07872627 -0.10081123 -0.65866005 -0.38286906 -0.09749572 -0.14833353 -0.16447061 -0.23336099 0.58171344 -0.8076031 -0.0073515703 -0.23583448 0.041041773 0.41294497 0.21334156 -0.2240285 0.74609864 -0.04374948 0.16200829 0.92118335 0.3335796 -0.47356692 0.23437564 0.068820015 -0.20936422 0.7547095 -0.15753965 -0.43910897 0.19758889 -0.049278475
biznis__FXql6eVhbM923RdCi94SA -0.011123311 -0.38423115 0.323729 0.3060323 -0.22070308 -0.18269402 -0.37283027 -0.08810216 -0.5456226 -0.39265266 0.19190563 -0.38379085 0.21361113 -0.22546558 0.44466448 0.10911353 -0.19973372 0.3275676 0.42657685 0.44034973 0.62183523 0.5021089 -0.17820095 -0.5700995 0.34651878 -0.60896707 0.042853307 0.30603316 -0.13846205 -0.039614696 -0.12968229 -0.1997431
biznis_Z6aaze-cgaYKKXlpuH9LqA 0.16315372 0.06167174 -0.012272949 -0.6011042 0.20029858 0.4195781 0.16118 -0.24004886 -0.42684895 -0.5173378 0.42696244 -0.4094926 0.36428887 -0.24524765 -0.006244957 0.16152768 -0.076177746 -0.2758504 0.13952886 -0.09453245 0.98083204 0.59723467 -0.048594017 -0.6820215 0.22705373 -0.13142993 -0.55396247 0.22368178 -0.37406304 0.24770926 0.11735663 0.5902232
biznis_vSf0pqvaLp5sVSjJPeOqqQ -0.06625182 -0.46709076 0.058336448 0.35817996 0.109548874 -0.2317127 -0.27061772 -0.21240476 -0.44025618 -0.20366617 -0.08011653 -0.6354613 0.22577395 -0.02296758 0.36372706 0.09946239 0.2275397 -0.06526981 0.06583538 0.8432551 0.7261455 -0.022085667 0.14927484 -0.4243918 0.10144857 -0.8110492 -0.33167332 0.7111527 0.12911251 -0.014831545 -0.0389391 -0.32468003
biznis_9c_9SX-7hB7HW8KatQbD8g 0.34636155 0.3274004 -0.06605949 0.049880333 0.38750282 0.16505316 0.54675835 -0.3499887 -0.7740813 -0.41025618 -0.21325305 0.066185914 0.21919101 -0.5666746 0.052371696 0.36665404 0.22478738 0.12274228 -0.032659512 0.10147831 0.6695148 0.5540829 0.15455903 -0.36068696 0.2723773 -0.14108267 -0.63433325 0.4777585 -0.28036284 0.372583 -0.026284834 0.013487828
biznis_KPoTixdjoJxSqRSEApSAGg -0.12253114 -0.117675796 0.3568669 -0.07846071 -0.2844919 -0.4286607 0.061633255 -0.49305576 0.072347134 -0.47536722 0.24667633 -0.6137091 0.04258208 0.15756063 0.34521538 0.059566088 -0.20422292 0.25447345 0.094448 0.04731008 0.2530129 0.552759 0.119070925 -0.54240876 0.20335013 -0.3099932 -0.38394615 0.8197293 -0.26499635 -0.15035008 0.24275741 -0.091814265
biznis_Lp-A-JNRUUH72uou5-pMtQ -0.24551432 -0.15162863 0.21251032 -0.14964646 -0.091176964 -0.28660786 0.07634174 -0.2934982 0.023022033 -0.3524779 0.406005 -0.56374776 0.2040899 -0.005530364 0.30746537 -0.12598968 -0.33614483 0.37503263 0.05780722 0.34979397 0.3764008 0.57216537 -0.027964476 -0.695247 0.060517173 -0.21928194 -0.046328377 0.9975897 -0.13571294 -0.059628174 0.109792225 -0.30496395
biznis_uKSX1n1RoAzGq4bV8GPHVg -0.09553634 -0.572157 0.39299884 0.27067983 0.061342005 0.013560214 -0.14283793 0.14645043 -0.07259508 -0.64938253 0.020697331 -0.6020809 -0.12252213 0.009976076 0.4152032 0.39112648 0.015191774 0.39195386 0.38954046 0.058579497 0.25819984 0.43601403 0.019402886 -0.66588485 0.27369234 -0.19074567 0.02785881 0.71058095 -0.20072447 -0.49129057 0.08932815 0.2056623
biznis_zt1TpTuJ6y9n551sw9TaEg 0.18093134 0.2041143 0.35382205 0.37746224 0.13997205 0.30802515 0.14925784 -0.37858784 -0.5768995 -0.08315931 0.4230739 -0.17678237 -0.13085954 0.22917618 0.40865105 -0.028085282 0.37682083 0.49298075 0.2798282 -0.087128066 0.20248541 0.71559346 -0.05157022 -1.1332177 0.26062444 0.33088154 -0.48686004 0.4042961 -0.054754697 -0.14789318 -0.04783912 -0.3187267
biznis_OwBPjUz2o0J5K3DzcHkBtg -0.22984855 -0.065866336 0.14839076 -0.03531304 -0.23768716 -0.03644734 0.12907186 -0.46296147 -0.1351636 -0.08164899 -0.0060783494 -0.8812609 0.1848998 -0.40406525 0.5453124 0.19487873 -0.37224048 0.15869159 -0.17747772 0.31199548 0.55037755 0.37650192 -0.3138319 -0.8598464 0.08496226 0.48626754 -0.06175206 0.6614968 -0.010124941 0.025408573 -0.18123531 0.17886753
biznis_D_BMUHbZk67hzRcK3xQQmg 0.21804476 0.04889316 -0.016652318 0.29254326 -0.46684474 -0.15839238 -0.013372023 -0.6733063 -0.051413413 -0.37285468 0.18019773 -1.0564342 0.08128753 -0.1972501 0.07444209 0.50406843 -0.33349925 -0.12484463 0.08326041 0.16788575 0.305108 0.6962165 0.04081319 -0.8080662 0.09218714 0.24369146 -0.21404268 0.3999154 -0.2941782 0.021637773 -0.39586842 0.24128036
dan_odpri_Monday_09:00:00 0.016270988 -0.33430934 0.6609266 0.799134 -0.07209207 -0.6407807 0.46732202 0.038122624 0.9321493 0.7345878 0.12623462 0.06003237 -0.1312678 -1.0648445 -0.9130874 -0.3957172 -0.8339789 0.44451067 -0.093360335 0.07189951 0.95169836 0.67654335 0.46671724 0.4074058 -0.10261636 -0.15818796 -0.32855305 0.8583927 0.51284873 -0.32581136 0.28790438 0.61953443
biznis_qGffC4h6UOTSkLhzjj59FQ 0.10879579 -0.540509 0.040127527 0.058143582 -0.14926662 -0.11738285 0.051429123 -0.33892524 0.29337928 -0.81640065 0.23993455 -0.5957779 -0.0513277 0.004233485 0.028626483 0.30279464 -0.39558527 0.20212047 -0.30830392 -0.16654499 0.47212142 0.5196101 -0.22426908 -0.8171893 0.35002378 -0.08498811 -0.2578986 0.5860971 -0.21483417 -0.22079153 0.046203088 0.007399882
biznis_aGbjLWzcrnEx2ZmMCFm3EA 0.0421279 0.0074541285 0.0035810405 0.2238125 0.36520886 0.09037299 0.18780322 -0.14176133 -0.53322476 -0.50641525 0.3175875 -0.44167137 0.04140669 -0.17436577 0.0911472 -0.02253241 -0.044833083 0.046226084 -0.05574652 0.5661667 0.7239931 0.1533737 0.1624302 -0.75470877 0.50362456 -1.0541869 -0.23360705 0.3112075 -0.12794192 0.37506416 0.11114567 -0.20984578
biznis_pQ3kRVmttsV1bHxuTf7TAg 0.11479687 -0.20390683 -0.23774122 -0.30495268 -0.90570784 -0.22855891 0.24201368 -0.3680101 -0.56812847 0.029744186 0.43620828 -0.576795 -0.2913207 -0.43492073 -0.50567 0.39841524 0.39781836 -0.1304754 0.18103786 0.87930125 0.6113874 0.1422305 0.2508462 -0.7006555 -0.18061891 -0.034130856 0.0804335 0.6372949 0.2264502 -0.45073316 -0.17659883 -0.30196366
biznis_ryvMJK6AlbU35HKrlFT61w 0.09706325 -0.45079508 0.17772192 0.44761917 -0.21888354 -0.06395577 -0.32741868 -0.33215883 -0.37674513 -0.18895128 -0.238942 -0.43999916 -0.2697458 0.18948142 0.24200736 0.11738593 0.04902483 0.4223057 -0.10258398 0.36069724 0.2785884 0.75204283 0.25687632 -0.94475895 -0.132415 -0.091144405 -0.18451717 0.44623834 -0.17961574 -0.27501336 -0.5844091 -0.3480457
biznis_kKcniirsMqUd_x0pZEGcWA 0.03665797 -0.38475037 0.31720605 0.25317222 0.25796038 -0.44790068 -0.16363214 -0.19976503 -0.4447109 -0.31028652 -0.1818948 -0.48626363 -0.08110105 -0.14495721 0.5683646 0.17057246 -0.1682764 0.2680135 0.2919043 0.15309446 0.5718196 0.5556125 0.16385989 -0.35791144 0.31239823 -0.45832297 0.19148418 0.4016423 0.07339859 0.07365473 0.24959724 -0.083763085
biznis_pwpl-rxwNRQdgqFz_-qMPg -0.1976642 -0.5512603 0.10514779 0.1413117 0.03717984 -0.063260324 -0.030070046 -0.16404687 -0.00057883444 -0.70310104 0.090634875 -0.56114197 -0.0821397 -0.14428787 0.50559556 0.4276976 -0.41736266 0.24237943 0.17934205 0.17135032 0.4370649 0.3423599 -0.02346957 -0.6256739 0.38372552 -0.29047063 0.086646535 0.5641733 -0.3383482 -0.22023697 0.041737802 -0.03760343
biznis_eLPld7Q17XxlclFGzZQX5g 0.013798333 -0.27245754 0.11508022 0.27496904 0.1321312 -0.5780964 -0.20594151 -0.27646786 -0.28509253 -0.43062997 -0.009395526 -0.67903405 -0.08041259 -0.31099153 0.6076365 0.23416653 -0.40507922 0.33350977 0.07485605 0.24790587 0.6701712 0.6209727 0.090360776 -0.28098333 0.16120864 -0.1607103 0.21292838 0.18899053 0.03318624 0.18749507 0.26243156 -0.2319864
biznis_MN0OLvP8i0SirMJ7AMuMzA -0.20614925 0.08154724 0.22970848 0.16473308 -0.028081467 -0.043621406 0.30744728 -0.34463733 -0.34148234 -0.46814245 0.13704824 -0.5531796 0.06939186 -0.37922612 -0.048394207 0.22749285 -0.16772194 0.14513059 -0.21532427 0.23575915 0.51329404 0.26432765 0.13443676 -0.74682224 0.504573 -0.9262455 -0.23962833 0.47602338 -0.12254498 0.33176064 0.06924341 -0.035028007
biznis_notMxQXE3BaBAgiD-o1jgg -0.41819766 -0.059273966 0.06377771 0.19204977 0.004939817 -0.29464117 -0.18409356 -0.16960205 -0.27296975 -0.708634 0.007785796 -0.27029398 0.13751 -0.29987964 0.4104873 0.5458625 -0.21159004 0.08438062 0.26470417 0.2688485 0.50354284 0.5629119 0.38567573 -0.44931355 0.5221595 -0.28566477 0.18821666 0.6203628 -0.172679 0.07399882 0.14035355 -0.124686494
biznis_y4Qyf4PPSOHdQFTr3Zi_KA 0.10686517 0.11059771 -0.1349144 -0.26141626 -0.13983232 0.35511923 0.59480697 -0.0739265 -0.9403128 -0.31695676 -0.35056707 0.30321702 0.03501997 -0.8362995 0.06829976 0.48655045 0.35238743 -0.06576614 0.30611098 0.24392597 0.768515 0.0052294885 0.53094625 -0.4143623 0.29915938 -0.12511624 -0.35111827 0.45143366 -0.05550038 0.009231733 0.14871421 -0.1478705
atribut_vrednost_Good for Kids_false -0.059376914 -0.5941956 -0.09301705 -0.49186397 -0.24827322 0.39135915 0.013912748 0.3049664 -0.66182595 -0.13809967 0.11132775 -1.064889 -0.20003499 -0.25580195 -0.14714192 -1.0038875 0.08312873 0.43323272 0.21874675 0.6657833 0.24772331 0.36451185 0.5448621 -0.56507194 -0.032138716 -0.30877092 0.4358356 -0.47434074 0.117963634 -1.2381423 0.050277248 1.0605179
atribut_vrednost_Outdoor Seating_false 0.3902502 -0.22067209 -0.40707836 0.11673303 0.22199503 -0.24986427 0.54387355 -0.34549975 -0.735028 0.44410855 0.13067128 -0.95151657 -0.31071562 -0.0651274 0.42580563 0.22244136 0.20543033 1.0815468 -0.19591548 0.17477125 0.083817884 0.5120408 0.31092644 -0.2881513 0.8997495 0.11185761 -0.26425198 0.10402458 -0.17066467 0.4818497 0.28951284 0.590739
atribut_vrednost_Takes Reservations_true -0.14587444 -0.28293818 -0.62551355 0.091987886 -0.08469225 0.40817535 0.107189395 -0.22597334 -0.7871067 -0.25482294 -0.3770948 -0.830284 0.43973094 -0.08879785 -0.06980097 0.42032492 -0.2004218 0.4476802 0.28324634 0.3770238 -0.30443332 0.91931325 0.46651274 -0.004733029 0.6490996 -0.39756975 -0.32631585 0.3572513 0.024861319 -0.34707046 0.3540696 0.14651908
atribut_vrednost_casual_true -0.06265417 -0.828362 -0.35613424 -0.29319978 0.13381396 -0.67443633 0.3109054 -0.09895373 -0.7325844 0.3210769 0.11900255 -0.48134717 0.14301346 0.30565146 0.29736522 0.7738809 -0.4329853 0.6326029 -0.16083406 -0.25756997 0.26125136 0.060647693 0.12779415 -0.3562966 0.7845707 0.036069624 -1.0067301 0.3440251 -0.004574951 0.7913354 -0.07711645 -0.38738048
dan_zapri_Monday_19:00:00 0.17345591 -0.1991222 0.34035552 0.6841562 0.39638203 0.14848553 -0.16062224 0.65790826 0.1547574 -0.5036633 -0.68518716 0.7050156 0.26982784 0.19063842 -0.00093080156 -0.32961676 -1.1372147 -0.77863944 -0.36755192 0.62386847 0.81792957 0.52622455 0.62510955 0.30528653 -0.0038106306 0.2803718 -1.4362972 -0.11574758 0.5606588 -0.71328074 0.61493194 0.83803767
dan_zapri_Wednesday_19:00:00 0.25721166 -0.25571254 0.29591343 0.5510497 0.24061793 0.20145476 0.11252615 0.6786284 0.123533085 -0.47453856 -0.7609757 0.809518 0.15513268 0.25504172 -0.15824613 -0.28620872 -1.199223 -0.6066197 -0.44343194 0.70857 0.75850046 0.5157613 0.4880696 0.2726353 -0.15776397 0.2383454 -1.6027892 -0.2732921 0.44639057 -0.8032522 0.58877987 0.67681587
